<?xml version="1.0"?>
<opencv_storage>
<cascade>
  <stageType>BOOST</stageType>
  <featureType>HAAR</featureType>
  <height>24</height>
  <width>24</width>
  <stageParams>
    <boostType>GAB</boostType>
    <minHitRate>9.9900001287460327e-01</minHitRate>
    <maxFalseAlarm>5.0000000000000000e-01</maxFalseAlarm>
    <weightTrimRate>9.4999998807907104e-01</weightTrimRate>
    <maxDepth>1</maxDepth>
    <maxWeakCount>100</maxWeakCount></stageParams>
  <featureParams>
    <maxCatCount>0</maxCatCount>
    <featSize>1</featSize>
    <mode>BASIC</mode></featureParams>
  <stageNum>20</stageNum>
  <stages>
    <!-- stage 0 -->
    <_>
      <maxWeakCount>22</maxWeakCount>
      <stageThreshold>-1.9644567966461182e+00</stageThreshold>
      <weakClassifiers>
        <_>
          <internalNodes>
            0 -1 520 5.4971717298030853e-02</internalNodes>
          <leafValues>
            -5.7465565204620361e-01 6.6190475225448608e-01</leafValues></_>
        <_>
          <internalNodes>
            0 -1 1007 -2.4703484028577805e-02</internalNodes>
          <leafValues>
            5.6936025619506836e-01 -3.0201768875122070e-01</leafValues></_>
        <_>
          <internalNodes>
            0 -1 1088 3.6336625926196575e-03</internalNodes>
          <leafValues>
            -2.1901847422122955e-01 5.6116712093353271e-01</leafValues></_>
        <_>
          <internalNodes>
            0 -1 121 3.8843385875225067e-02</internalNodes>
          <leafValues>
            -1.3064748048782349e-01 5.7941138744354248e-01</leafValues></_>
        <_>
          <internalNodes>
            0 -1 476 -4.5894555747509003e-02</internalNodes>
          <leafValues>
            5.0990331172943115e-01 -2.7261534333229065e-01</leafValues></_>
        <_>
          <internalNodes>
            0 -1 250 -1.0385414958000183e-01</internalNodes>
          <leafValues>
            -8.3760607242584229e-01 1.4625188708305359e-01</leafValues></_>
        <_>
          <internalNodes>
            0 -1 176 7.9810574650764465e-02</internalNodes>
          <leafValues>
            1.2911814451217651e-01 -6.9931185245513916e-01</leafValues></_>
        <_>
          <internalNodes>
            0 -1 981 1.5056164935231209e-02</internalNodes>
          <leafValues>
            -1.6089507937431335e-01 5.4079008102416992e-01</leafValues></_>
        <_>
          <internalNodes>
            0 -1 629 -5.2145365625619888e-02</internalNodes>
          <leafValues>
            -6.3879823684692383e-01 9.5947958528995514e-02</leafValues></_>
        <_>
          <internalNodes>
            0 -1 94 2.0535141229629517e-01</internalNodes>
          <leafValues>
            7.4772723019123077e-02 -8.6348348855972290e-01</leafValues></_>
        <_>
          <internalNodes>
            0 -1 142 9.8007936030626297e-03</internalNodes>
          <leafValues>
            -2.0217266678810120e-01 3.0378377437591553e-01</leafValues></_>
        <_>
          <internalNodes>
            0 -1 742 3.7841893732547760e-02</internalNodes>
          <leafValues>
            1.1846588551998138e-01 -5.2404892444610596e-01</leafValues></_>
        <_>
          <internalNodes>
            0 -1 461 -1.4004311524331570e-02</internalNodes>
          <leafValues>
            8.4131491184234619e-01 -7.9007998108863831e-02</leafValues></_>
        <_>
          <internalNodes>
            0 -1 706 1.8355955835431814e-03</internalNodes>
          <leafValues>
            9.7247689962387085e-02 -6.3953942060470581e-01</leafValues></_>
        <_>
          <internalNodes>
            0 -1 306 -3.7429518997669220e-03</internalNodes>
          <leafValues>
            4.2223855853080750e-01 -1.5016718208789825e-01</leafValues></_>
        <_>
          <internalNodes>
            0 -1 697 -3.7424648180603981e-03</internalNodes>
          <leafValues>
            2.6231065392494202e-01 -1.8448837101459503e-01</leafValues></_>
        <_>
          <internalNodes>
            0 -1 780 -2.3347891867160797e-02</internalNodes>
          <leafValues>
            3.1239289045333862e-01 -1.4372289180755615e-01</leafValues></_>
        <_>
          <internalNodes>
            0 -1 699 -2.3686710745096207e-02</internalNodes>
          <leafValues>
            -4.7379305958747864e-01 9.5755338668823242e-02</leafValues></_>
        <_>
          <internalNodes>
            0 -1 779 -1.5319043304771185e-03</internalNodes>
          <leafValues>
            3.1602555513381958e-01 -1.4757354557514191e-01</leafValues></_>
        <_>
          <internalNodes>
            0 -1 724 1.9935335963964462e-02</internalNodes>
          <leafValues>
            8.2945205271244049e-02 -5.7778602838516235e-01</leafValues></_>
        <_>
          <internalNodes>
            0 -1 812 1.8685843679122627e-04</internalNodes>
          <leafValues>
            -1.4905552566051483e-01 2.9411169886589050e-01</leafValues></_>
        <_>
          <internalNodes>
            0 -1 389 -1.1167740821838379e-01</internalNodes>
          <leafValues>
            -4.4847232103347778e-01 9.0880081057548523e-02</leafValues></_></weakClassifiers></_>
    <!-- stage 1 -->
    <_>
      <maxWeakCount>21</maxWeakCount>
      <stageThreshold>-1.9148710966110229e+00</stageThreshold>
      <weakClassifiers>
        <_>
          <internalNodes>
            0 -1 254 2.3357130587100983e-02</internalNodes>
          <leafValues>
            -5.9007298946380615e-01 4.6985647082328796e-01</leafValues></_>
        <_>
          <internalNodes>
            0 -1 1014 -7.6640099287033081e-03</internalNodes>
          <leafValues>
            4.5219907164573669e-01 -3.5542106628417969e-01</leafValues></_>
        <_>
          <internalNodes>
            0 -1 437 -1.1062216944992542e-02</internalNodes>
          <leafValues>
            3.9246910810470581e-01 -2.6483467221260071e-01</leafValues></_>
        <_>
          <internalNodes>
            0 -1 1006 1.5061924234032631e-02</internalNodes>
          <leafValues>
            -2.2965976595878601e-01 5.4355108737945557e-01</leafValues></_>
        <_>
          <internalNodes>
            0 -1 21 -6.8802624940872192e-02</internalNodes>
          <leafValues>
            5.8559209108352661e-01 -1.1522725224494934e-01</leafValues></_>
        <_>
          <internalNodes>
            0 -1 51 1.3265401124954224e-02</internalNodes>
          <leafValues>
            -1.9580726325511932e-01 3.9740300178527832e-01</leafValues></_>
        <_>
          <internalNodes>
            0 -1 528 1.7733465880155563e-02</internalNodes>
          <leafValues>
            -1.5917755663394928e-01 3.9307701587677002e-01</leafValues></_>
        <_>
          <internalNodes>
            0 -1 792 -2.8361866250634193e-02</internalNodes>
          <leafValues>
            6.9643968343734741e-01 -9.2673785984516144e-02</leafValues></_>
        <_>
          <internalNodes>
            0 -1 475 -4.3935850262641907e-02</internalNodes>
          <leafValues>
            6.9288277626037598e-01 -6.7911937832832336e-02</leafValues></_>
        <_>
          <internalNodes>
            0 -1 384 1.6838099807500839e-02</internalNodes>
          <leafValues>
            -1.2534314393997192e-01 3.7276265025138855e-01</leafValues></_>
        <_>
          <internalNodes>
            0 -1 943 1.3110194355249405e-02</internalNodes>
          <leafValues>
            -1.3557873666286469e-01 3.7325909733772278e-01</leafValues></_>
        <_>
          <internalNodes>
            0 -1 5 -2.2052267193794250e-01</internalNodes>
          <leafValues>
            3.7323263287544250e-01 -1.4965702593326569e-01</leafValues></_>
        <_>
          <internalNodes>
            0 -1 410 -4.9166027456521988e-02</internalNodes>
          <leafValues>
            -5.7365775108337402e-01 1.6195248067378998e-01</leafValues></_>
        <_>
          <internalNodes>
            0 -1 10 1.3251245021820068e-01</internalNodes>
          <leafValues>
            -1.6239790618419647e-01 4.6085077524185181e-01</leafValues></_>
        <_>
          <internalNodes>
            0 -1 1063 -8.2079577259719372e-04</internalNodes>
          <leafValues>
            -5.4757159948348999e-01 1.3241703808307648e-01</leafValues></_>
        <_>
          <internalNodes>
            0 -1 627 2.1764706820249557e-02</internalNodes>
          <leafValues>
            -2.0263934135437012e-01 2.5622311234474182e-01</leafValues></_>
        <_>
          <internalNodes>
            0 -1 975 8.4122130647301674e-03</internalNodes>
          <leafValues>
            1.1842615157365799e-01 -5.1447761058807373e-01</leafValues></_>
        <_>
          <internalNodes>
            0 -1 420 -1.9053734140470624e-03</internalNodes>
          <leafValues>
            2.4424390494823456e-01 -2.0464171469211578e-01</leafValues></_>
        <_>
          <internalNodes>
            0 -1 212 1.3119760900735855e-02</internalNodes>
          <leafValues>
            -8.8499747216701508e-02 3.4101578593254089e-01</leafValues></_>
        <_>
          <internalNodes>
            0 -1 235 4.8791803419589996e-02</internalNodes>
          <leafValues>
            8.4686547517776489e-02 -4.9638444185256958e-01</leafValues></_>
        <_>
          <internalNodes>
            0 -1 284 1.6851352993398905e-03</internalNodes>
          <leafValues>
            6.9886818528175354e-02 -5.0158572196960449e-01</leafValues></_></weakClassifiers></_>
    <!-- stage 2 -->
    <_>
      <maxWeakCount>34</maxWeakCount>
      <stageThreshold>-1.8901102542877197e+00</stageThreshold>
      <weakClassifiers>
        <_>
          <internalNodes>
            0 -1 396 -2.9131021350622177e-02</internalNodes>
          <leafValues>
            5.6407183408737183e-01 -5.5048143863677979e-01</leafValues></_>
        <_>
          <internalNodes>
            0 -1 436 -2.8230471536517143e-02</internalNodes>
          <leafValues>
            5.7122242450714111e-01 -2.4081072211265564e-01</leafValues></_>
        <_>
          <internalNodes>
            0 -1 206 2.4239270016551018e-02</internalNodes>
          <leafValues>
            -1.8469803035259247e-01 5.7797729969024658e-01</leafValues></_>
        <_>
          <internalNodes>
            0 -1 20 -5.8400981128215790e-02</internalNodes>
          <leafValues>
            5.9857547283172607e-01 -1.0960493236780167e-01</leafValues></_>
        <_>
          <internalNodes>
            0 -1 101 4.1356228291988373e-02</internalNodes>
          <leafValues>
            -1.7504952847957611e-01 4.6955692768096924e-01</leafValues></_>
        <_>
          <internalNodes>
            0 -1 377 3.2842345535755157e-02</internalNodes>
          <leafValues>
            -1.8350522220134735e-01 4.2822435498237610e-01</leafValues></_>
        <_>
          <internalNodes>
            0 -1 633 -3.4534707665443420e-03</internalNodes>
          <leafValues>
            -5.7705688476562500e-01 1.6042043268680573e-01</leafValues></_>
        <_>
          <internalNodes>
            0 -1 632 2.6331820990890265e-03</internalNodes>
          <leafValues>
            1.3239718973636627e-01 -6.3328653573989868e-01</leafValues></_>
        <_>
          <internalNodes>
            0 -1 962 -2.6934135705232620e-02</internalNodes>
          <leafValues>
            4.4280788302421570e-01 -1.8298445641994476e-01</leafValues></_>
        <_>
          <internalNodes>
            0 -1 883 1.3110173866152763e-02</internalNodes>
          <leafValues>
            8.4815904498100281e-02 -7.2562986612319946e-01</leafValues></_>
        <_>
          <internalNodes>
            0 -1 640 -4.1368991136550903e-02</internalNodes>
          <leafValues>
            -6.6936236619949341e-01 1.0118576884269714e-01</leafValues></_>
        <_>
          <internalNodes>
            0 -1 531 2.1584223955869675e-02</internalNodes>
          <leafValues>
            -1.7459894716739655e-01 4.2883694171905518e-01</leafValues></_>
        <_>
          <internalNodes>
            0 -1 534 -4.0296420454978943e-02</internalNodes>
          <leafValues>
            5.0824135541915894e-01 -1.3809724152088165e-01</leafValues></_>
        <_>
          <internalNodes>
            0 -1 861 1.0751325637102127e-02</internalNodes>
          <leafValues>
            -9.1984033584594727e-02 5.3527832031250000e-01</leafValues></_>
        <_>
          <internalNodes>
            0 -1 505 2.0074361562728882e-01</internalNodes>
          <leafValues>
            -6.1730861663818359e-02 8.4360641241073608e-01</leafValues></_>
        <_>
          <internalNodes>
            0 -1 1065 1.3255025260150433e-03</internalNodes>
          <leafValues>
            1.1748707294464111e-01 -5.4084891080856323e-01</leafValues></_>
        <_>
          <internalNodes>
            0 -1 1061 -1.2846111785620451e-03</internalNodes>
          <leafValues>
            -5.2069044113159180e-01 1.0168618708848953e-01</leafValues></_>
        <_>
          <internalNodes>
            0 -1 847 2.5151303038001060e-02</internalNodes>
          <leafValues>
            -1.6176016628742218e-01 3.4101861715316772e-01</leafValues></_>
        <_>
          <internalNodes>
            0 -1 1025 1.1953940615057945e-02</internalNodes>
          <leafValues>
            -1.0716244578361511e-01 4.4974648952484131e-01</leafValues></_>
        <_>
          <internalNodes>
            0 -1 117 9.8854210227727890e-03</internalNodes>
          <leafValues>
            -1.7415922880172729e-01 2.8688684105873108e-01</leafValues></_>
        <_>
          <internalNodes>
            0 -1 438 4.3508419767022133e-03</internalNodes>
          <leafValues>
            7.8192323446273804e-02 -7.4499994516372681e-01</leafValues></_>
        <_>
          <internalNodes>
            0 -1 125 -3.7058154121041298e-03</internalNodes>
          <leafValues>
            -7.1106845140457153e-01 5.1101852208375931e-02</leafValues></_>
        <_>
          <internalNodes>
            0 -1 518 -4.6784244477748871e-02</internalNodes>
          <leafValues>
            -6.6587775945663452e-01 6.3953652977943420e-02</leafValues></_>
        <_>
          <internalNodes>
            0 -1 575 1.0255215689539909e-02</internalNodes>
          <leafValues>
            9.6554137766361237e-02 -5.2096700668334961e-01</leafValues></_>
        <_>
          <internalNodes>
            0 -1 1053 4.2122211307287216e-03</internalNodes>
          <leafValues>
            -1.3396015763282776e-01 3.6505889892578125e-01</leafValues></_>
        <_>
          <internalNodes>
            0 -1 537 2.7052916586399078e-02</internalNodes>
          <leafValues>
            -1.2037028372287750e-01 4.2278209328651428e-01</leafValues></_>
        <_>
          <internalNodes>
            0 -1 877 -1.6114644706249237e-02</internalNodes>
          <leafValues>
            -5.2383100986480713e-01 8.4658600389957428e-02</leafValues></_>
        <_>
          <internalNodes>
            0 -1 958 1.1468309909105301e-02</internalNodes>
          <leafValues>
            -1.4002779126167297e-01 3.2601344585418701e-01</leafValues></_>
        <_>
          <internalNodes>
            0 -1 696 2.6424739189678803e-05</internalNodes>
          <leafValues>
            -1.9386111199855804e-01 2.3427340388298035e-01</leafValues></_>
        <_>
          <internalNodes>
            0 -1 586 2.5578159838914871e-03</internalNodes>
          <leafValues>
            6.1055693775415421e-02 -7.4289476871490479e-01</leafValues></_>
        <_>
          <internalNodes>
            0 -1 924 -3.3595077693462372e-02</internalNodes>
          <leafValues>
            4.4828906655311584e-01 -1.0516413301229477e-01</leafValues></_>
        <_>
          <internalNodes>
            0 -1 99 -4.3250225484371185e-02</internalNodes>
          <leafValues>
            -6.1922842264175415e-01 7.2702012956142426e-02</leafValues></_>
        <_>
          <internalNodes>
            0 -1 162 2.2277284413576126e-02</internalNodes>
          <leafValues>
            6.3417375087738037e-02 -6.5608274936676025e-01</leafValues></_>
        <_>
          <internalNodes>
            0 -1 192 6.1324648559093475e-03</internalNodes>
          <leafValues>
            -1.4154033362865448e-01 3.1698316335678101e-01</leafValues></_></weakClassifiers></_>
    <!-- stage 3 -->
    <_>
      <maxWeakCount>38</maxWeakCount>
      <stageThreshold>-1.9015226364135742e+00</stageThreshold>
      <weakClassifiers>
        <_>
          <internalNodes>
            0 -1 396 -3.3381961286067963e-02</internalNodes>
          <leafValues>
            5.4128438234329224e-01 -5.2414351701736450e-01</leafValues></_>
        <_>
          <internalNodes>
            0 -1 969 -6.7252530716359615e-03</internalNodes>
          <leafValues>
            5.1506501436233521e-01 -2.5921225547790527e-01</leafValues></_>
        <_>
          <internalNodes>
            0 -1 123 -1.1084752157330513e-02</internalNodes>
          <leafValues>
            6.8275195360183716e-01 -1.4633497595787048e-01</leafValues></_>
        <_>
          <internalNodes>
            0 -1 77 -3.7422783672809601e-02</internalNodes>
          <leafValues>
            6.5105831623077393e-01 -6.8114534020423889e-02</leafValues></_>
        <_>
          <internalNodes>
            0 -1 811 -3.0701477080583572e-03</internalNodes>
          <leafValues>
            6.7092061042785645e-01 -9.4408199191093445e-02</leafValues></_>
        <_>
          <internalNodes>
            0 -1 645 1.6606286168098450e-02</internalNodes>
          <leafValues>
            1.0192385315895081e-01 -5.7489210367202759e-01</leafValues></_>
        <_>
          <internalNodes>
            0 -1 172 -5.1987357437610626e-02</internalNodes>
          <leafValues>
            -7.4156844615936279e-01 9.4570614397525787e-02</leafValues></_>
        <_>
          <internalNodes>
            0 -1 746 -2.2554647177457809e-02</internalNodes>
          <leafValues>
            5.0472813844680786e-01 -1.3399466872215271e-01</leafValues></_>
        <_>
          <internalNodes>
            0 -1 435 -3.0576933175325394e-02</internalNodes>
          <leafValues>
            3.9409121870994568e-01 -1.5210610628128052e-01</leafValues></_>
        <_>
          <internalNodes>
            0 -1 52 -2.7047194540500641e-02</internalNodes>
          <leafValues>
            4.0914541482925415e-01 -1.3014902174472809e-01</leafValues></_>
        <_>
          <internalNodes>
            0 -1 159 6.3716828823089600e-02</internalNodes>
          <leafValues>
            1.2738282978534698e-01 -4.0605646371841431e-01</leafValues></_>
        <_>
          <internalNodes>
            0 -1 625 -3.8176871836185455e-02</internalNodes>
          <leafValues>
            -4.2928773164749146e-01 1.2238182127475739e-01</leafValues></_>
        <_>
          <internalNodes>
            0 -1 973 1.8585465848445892e-02</internalNodes>
          <leafValues>
            -1.0606981813907623e-01 4.8924928903579712e-01</leafValues></_>
        <_>
          <internalNodes>
            0 -1 122 9.7047351300716400e-03</internalNodes>
          <leafValues>
            9.0448580682277679e-02 -5.6721264123916626e-01</leafValues></_>
        <_>
          <internalNodes>
            0 -1 156 -3.9209108799695969e-03</internalNodes>
          <leafValues>
            4.7967100143432617e-01 -1.0427734255790710e-01</leafValues></_>
        <_>
          <internalNodes>
            0 -1 326 5.2101695910096169e-03</internalNodes>
          <leafValues>
            -9.9751368165016174e-02 4.4524732232093811e-01</leafValues></_>
        <_>
          <internalNodes>
            0 -1 25 2.0960524678230286e-02</internalNodes>
          <leafValues>
            6.6956758499145508e-02 -7.3523765802383423e-01</leafValues></_>
        <_>
          <internalNodes>
            0 -1 674 -3.6214005667716265e-03</internalNodes>
          <leafValues>
            -6.4782845973968506e-01 6.0954634100198746e-02</leafValues></_>
        <_>
          <internalNodes>
            0 -1 194 2.2618945688009262e-02</internalNodes>
          <leafValues>
            -1.2681396305561066e-01 3.6522990465164185e-01</leafValues></_>
        <_>
          <internalNodes>
            0 -1 314 6.0793329030275345e-03</internalNodes>
          <leafValues>
            -1.2302491068840027e-01 3.3491897583007813e-01</leafValues></_>
        <_>
          <internalNodes>
            0 -1 165 -8.8981766020879149e-04</internalNodes>
          <leafValues>
            2.4722787737846375e-01 -1.8834581971168518e-01</leafValues></_>
        <_>
          <internalNodes>
            0 -1 133 5.1857754588127136e-02</internalNodes>
          <leafValues>
            7.0634894073009491e-02 -5.7428759336471558e-01</leafValues></_>
        <_>
          <internalNodes>
            0 -1 356 6.6815003752708435e-02</internalNodes>
          <leafValues>
            5.8366276323795319e-02 -6.6481155157089233e-01</leafValues></_>
        <_>
          <internalNodes>
            0 -1 65 -1.9111802801489830e-02</internalNodes>
          <leafValues>
            -6.1840152740478516e-01 6.4420774579048157e-02</leafValues></_>
        <_>
          <internalNodes>
            0 -1 468 -2.6621739380061626e-04</internalNodes>
          <leafValues>
            1.8508216738700867e-01 -2.1160905063152313e-01</leafValues></_>
        <_>
          <internalNodes>
            0 -1 946 4.7483004629611969e-02</internalNodes>
          <leafValues>
            -1.0324424505233765e-01 4.6320900321006775e-01</leafValues></_>
        <_>
          <internalNodes>
            0 -1 876 -1.3601029291749001e-02</internalNodes>
          <leafValues>
            -5.2012801170349121e-01 7.8773476183414459e-02</leafValues></_>
        <_>
          <internalNodes>
            0 -1 1002 4.5547179877758026e-02</internalNodes>
          <leafValues>
            -1.0750582814216614e-01 3.8736239075660706e-01</leafValues></_>
        <_>
          <internalNodes>
            0 -1 913 -1.0571112856268883e-02</internalNodes>
          <leafValues>
            3.8182789087295532e-01 -1.1291069537401199e-01</leafValues></_>
        <_>
          <internalNodes>
            0 -1 655 1.6611047321930528e-03</internalNodes>
          <leafValues>
            -7.9574912786483765e-02 5.4570597410202026e-01</leafValues></_>
        <_>
          <internalNodes>
            0 -1 383 8.7819993495941162e-02</internalNodes>
          <leafValues>
            4.7049582004547119e-02 -9.3798404932022095e-01</leafValues></_>
        <_>
          <internalNodes>
            0 -1 1051 2.8288897592574358e-03</internalNodes>
          <leafValues>
            4.8037223517894745e-02 -6.1547034978866577e-01</leafValues></_>
        <_>
          <internalNodes>
            0 -1 731 2.0537185482680798e-03</internalNodes>
          <leafValues>
            -1.6645030677318573e-01 2.5272527337074280e-01</leafValues></_>
        <_>
          <internalNodes>
            0 -1 84 8.1523954868316650e-02</internalNodes>
          <leafValues>
            -1.2037535756826401e-01 3.2293754816055298e-01</leafValues></_>
        <_>
          <internalNodes>
            0 -1 14 -6.0915000736713409e-02</internalNodes>
          <leafValues>
            3.8170534372329712e-01 -9.8228700459003448e-02</leafValues></_>
        <_>
          <internalNodes>
            0 -1 175 -3.2614781521260738e-03</internalNodes>
          <leafValues>
            -4.1200676560401917e-01 1.0339272022247314e-01</leafValues></_>
        <_>
          <internalNodes>
            0 -1 1075 -7.0603936910629272e-03</internalNodes>
          <leafValues>
            3.7865090370178223e-01 -1.0814510285854340e-01</leafValues></_>
        <_>
          <internalNodes>
            0 -1 57 -3.4545145928859711e-02</internalNodes>
          <leafValues>
            -8.6667537689208984e-01 4.8164781183004379e-02</leafValues></_></weakClassifiers></_>
    <!-- stage 4 -->
    <_>
      <maxWeakCount>39</maxWeakCount>
      <stageThreshold>-1.8468744754791260e+00</stageThreshold>
      <weakClassifiers>
        <_>
          <internalNodes>
            0 -1 639 3.8918808102607727e-02</internalNodes>
          <leafValues>
            -5.5643564462661743e-01 4.6737968921661377e-01</leafValues></_>
        <_>
          <internalNodes>
            0 -1 293 -1.0640140622854233e-02</internalNodes>
          <leafValues>
            5.2503889799118042e-01 -2.6617532968521118e-01</leafValues></_>
        <_>
          <internalNodes>
            0 -1 15 -6.8349301815032959e-02</internalNodes>
          <leafValues>
            5.1331388950347900e-01 -1.6983497142791748e-01</leafValues></_>
        <_>
          <internalNodes>
            0 -1 337 -1.6364432871341705e-02</internalNodes>
          <leafValues>
            5.9900623559951782e-01 -9.9781066179275513e-02</leafValues></_>
        <_>
          <internalNodes>
            0 -1 199 1.3873059302568436e-02</internalNodes>
          <leafValues>
            -1.2358498573303223e-01 4.6721023321151733e-01</leafValues></_>
        <_>
          <internalNodes>
            0 -1 147 3.0435122549533844e-02</internalNodes>
          <leafValues>
            -1.1060894280672073e-01 4.2775976657867432e-01</leafValues></_>
        <_>
          <internalNodes>
            0 -1 373 5.5997073650360107e-03</internalNodes>
          <leafValues>
            -8.9154228568077087e-02 5.2948242425918579e-01</leafValues></_>
        <_>
          <internalNodes>
            0 -1 687 3.5686247050762177e-02</internalNodes>
          <leafValues>
            8.0386124551296234e-02 -6.1975073814392090e-01</leafValues></_>
        <_>
          <internalNodes>
            0 -1 787 -3.4867685753852129e-03</internalNodes>
          <leafValues>
            4.7934776544570923e-01 -1.0294006019830704e-01</leafValues></_>
        <_>
          <internalNodes>
            0 -1 967 5.2488259971141815e-03</internalNodes>
          <leafValues>
            -1.0170824825763702e-01 4.9083849787712097e-01</leafValues></_>
        <_>
          <internalNodes>
            0 -1 540 6.7273527383804321e-02</internalNodes>
          <leafValues>
            8.9363738894462585e-02 -5.6758207082748413e-01</leafValues></_>
        <_>
          <internalNodes>
            0 -1 865 -2.0372936502099037e-02</internalNodes>
          <leafValues>
            5.5068641901016235e-01 -7.7384434640407562e-02</leafValues></_>
        <_>
          <internalNodes>
            0 -1 562 4.3984748423099518e-02</internalNodes>
          <leafValues>
            -1.0998027026653290e-01 3.9860403537750244e-01</leafValues></_>
        <_>
          <internalNodes>
            0 -1 64 1.5521751344203949e-01</internalNodes>
          <leafValues>
            -8.8168241083621979e-02 4.7058707475662231e-01</leafValues></_>
        <_>
          <internalNodes>
            0 -1 576 7.2585986927151680e-03</internalNodes>
          <leafValues>
            -1.6671507060527802e-01 2.7836534380912781e-01</leafValues></_>
        <_>
          <internalNodes>
            0 -1 464 -8.7383054196834564e-02</internalNodes>
          <leafValues>
            -4.9367910623550415e-01 8.9688479900360107e-02</leafValues></_>
        <_>
          <internalNodes>
            0 -1 763 6.9701450411230326e-04</internalNodes>
          <leafValues>
            -1.3070584833621979e-01 3.1205162405967712e-01</leafValues></_>
        <_>
          <internalNodes>
            0 -1 922 -8.0157835036516190e-03</internalNodes>
          <leafValues>
            -6.1734515428543091e-01 6.7883759737014771e-02</leafValues></_>
        <_>
          <internalNodes>
            0 -1 951 2.6879142969846725e-02</internalNodes>
          <leafValues>
            5.7161461561918259e-02 -7.0591819286346436e-01</leafValues></_>
        <_>
          <internalNodes>
            0 -1 713 8.6858067661523819e-03</internalNodes>
          <leafValues>
            9.8099462687969208e-02 -4.0450820326805115e-01</leafValues></_>
        <_>
          <internalNodes>
            0 -1 802 -1.4122212305665016e-02</internalNodes>
          <leafValues>
            5.3842705488204956e-01 -8.0426707863807678e-02</leafValues></_>
        <_>
          <internalNodes>
            0 -1 153 -1.3257294893264771e-02</internalNodes>
          <leafValues>
            5.2438360452651978e-01 -7.0998832583427429e-02</leafValues></_>
        <_>
          <internalNodes>
            0 -1 236 4.7071374952793121e-02</internalNodes>
          <leafValues>
            9.0198807418346405e-02 -5.2207648754119873e-01</leafValues></_>
        <_>
          <internalNodes>
            0 -1 961 -1.8672866746783257e-02</internalNodes>
          <leafValues>
            3.2070842385292053e-01 -1.7346404492855072e-01</leafValues></_>
        <_>
          <internalNodes>
            0 -1 892 6.0942610725760460e-03</internalNodes>
          <leafValues>
            -1.1042639613151550e-01 3.7795045971870422e-01</leafValues></_>
        <_>
          <internalNodes>
            0 -1 875 -3.2201297581195831e-03</internalNodes>
          <leafValues>
            3.3692762255668640e-01 -1.4275731146335602e-01</leafValues></_>
        <_>
          <internalNodes>
            0 -1 277 1.3888997491449118e-03</internalNodes>
          <leafValues>
            7.6830931007862091e-02 -5.5373513698577881e-01</leafValues></_>
        <_>
          <internalNodes>
            0 -1 790 -2.3096012882888317e-03</internalNodes>
          <leafValues>
            -7.2139471769332886e-01 3.7164907902479172e-02</leafValues></_>
        <_>
          <internalNodes>
            0 -1 406 -7.4310541152954102e-02</internalNodes>
          <leafValues>
            -5.2247780561447144e-01 6.7296773195266724e-02</leafValues></_>
        <_>
          <internalNodes>
            0 -1 301 7.5136632658541203e-03</internalNodes>
          <leafValues>
            6.1028014868497849e-02 -5.3221154212951660e-01</leafValues></_>
        <_>
          <internalNodes>
            0 -1 183 4.3980650603771210e-02</internalNodes>
          <leafValues>
            5.7376898825168610e-02 -5.4712963104248047e-01</leafValues></_>
        <_>
          <internalNodes>
            0 -1 1068 -1.5600953483954072e-03</internalNodes>
          <leafValues>
            3.4265574812889099e-01 -1.1720955371856689e-01</leafValues></_>
        <_>
          <internalNodes>
            0 -1 902 3.3067803829908371e-02</internalNodes>
          <leafValues>
            -1.1689394712448120e-01 3.6765211820602417e-01</leafValues></_>
        <_>
          <internalNodes>
            0 -1 344 5.1167188212275505e-03</internalNodes>
          <leafValues>
            -1.5251594781875610e-01 2.5206261873245239e-01</leafValues></_>
        <_>
          <internalNodes>
            0 -1 679 2.3839090019464493e-02</internalNodes>
          <leafValues>
            -1.5186141431331635e-01 2.4389836192131042e-01</leafValues></_>
        <_>
          <internalNodes>
            0 -1 1071 -1.0508069768548012e-02</internalNodes>
          <leafValues>
            4.8035427927970886e-01 -7.9120293259620667e-02</leafValues></_>
        <_>
          <internalNodes>
            0 -1 878 2.6726635172963142e-02</internalNodes>
          <leafValues>
            5.9522207826375961e-02 -6.6533273458480835e-01</leafValues></_>
        <_>
          <internalNodes>
            0 -1 271 5.7897146325558424e-04</internalNodes>
          <leafValues>
            -1.4174507558345795e-01 2.5248536467552185e-01</leafValues></_>
        <_>
          <internalNodes>
            0 -1 106 1.0718977078795433e-02</internalNodes>
          <leafValues>
            6.5324939787387848e-02 -5.7177847623825073e-01</leafValues></_></weakClassifiers></_>
    <!-- stage 5 -->
    <_>
      <maxWeakCount>44</maxWeakCount>
      <stageThreshold>-1.8804874420166016e+00</stageThreshold>
      <weakClassifiers>
        <_>
          <internalNodes>
            0 -1 661 -3.2742038369178772e-02</internalNodes>
          <leafValues>
            4.2801931500434875e-01 -5.7438135147094727e-01</leafValues></_>
        <_>
          <internalNodes>
            0 -1 328 1.2196715921163559e-02</internalNodes>
          <leafValues>
            -2.5464150309562683e-01 5.5637818574905396e-01</leafValues></_>
        <_>
          <internalNodes>
            0 -1 1009 1.3757651671767235e-02</internalNodes>
          <leafValues>
            -1.9884149730205536e-01 3.7151795625686646e-01</leafValues></_>
        <_>
          <internalNodes>
            0 -1 131 1.5342194586992264e-02</internalNodes>
          <leafValues>
            -1.4603580534458160e-01 4.1131979227066040e-01</leafValues></_>
        <_>
          <internalNodes>
            0 -1 28 -2.5552487000823021e-02</internalNodes>
          <leafValues>
            4.0722924470901489e-01 -1.4988422393798828e-01</leafValues></_>
        <_>
          <internalNodes>
            0 -1 285 1.6575161367654800e-02</internalNodes>
          <leafValues>
            -1.0514812171459198e-01 4.7969451546669006e-01</leafValues></_>
        <_>
          <internalNodes>
            0 -1 363 -1.5984416007995605e-02</internalNodes>
          <leafValues>
            3.1972932815551758e-01 -1.4904332160949707e-01</leafValues></_>
        <_>
          <internalNodes>
            0 -1 1050 -1.6785951331257820e-02</internalNodes>
          <leafValues>
            3.7894007563591003e-01 -1.1945603042840958e-01</leafValues></_>
        <_>
          <internalNodes>
            0 -1 784 1.9262276589870453e-02</internalNodes>
          <leafValues>
            -9.6442334353923798e-02 5.1760596036911011e-01</leafValues></_>
        <_>
          <internalNodes>
            0 -1 836 -1.9827887415885925e-02</internalNodes>
          <leafValues>
            4.2224273085594177e-01 -7.5991690158843994e-02</leafValues></_>
        <_>
          <internalNodes>
            0 -1 663 -2.6718225330114365e-02</internalNodes>
          <leafValues>
            3.2387784123420715e-01 -1.5140919387340546e-01</leafValues></_>
        <_>
          <internalNodes>
            0 -1 815 -1.3196101412177086e-02</internalNodes>
          <leafValues>
            -4.8866942524909973e-01 1.1700587719678879e-01</leafValues></_>
        <_>
          <internalNodes>
            0 -1 811 -4.6440674923360348e-03</internalNodes>
          <leafValues>
            6.6368269920349121e-01 -8.8741973042488098e-02</leafValues></_>
        <_>
          <internalNodes>
            0 -1 446 4.7433778643608093e-02</internalNodes>
          <leafValues>
            7.7572956681251526e-02 -6.3378381729125977e-01</leafValues></_>
        <_>
          <internalNodes>
            0 -1 98 2.0305983722209930e-02</internalNodes>
          <leafValues>
            -1.0023511946201324e-01 4.3717262148857117e-01</leafValues></_>
        <_>
          <internalNodes>
            0 -1 592 4.6304699033498764e-02</internalNodes>
          <leafValues>
            -6.1828300356864929e-02 6.6890674829483032e-01</leafValues></_>
        <_>
          <internalNodes>
            0 -1 671 4.1368812322616577e-02</internalNodes>
          <leafValues>
            -1.1104460805654526e-01 3.5326281189918518e-01</leafValues></_>
        <_>
          <internalNodes>
            0 -1 734 -2.0967461168766022e-03</internalNodes>
          <leafValues>
            3.8170656561851501e-01 -9.7537778317928314e-02</leafValues></_>
        <_>
          <internalNodes>
            0 -1 786 4.9560675397515297e-03</internalNodes>
          <leafValues>
            5.9917878359556198e-02 -7.6200282573699951e-01</leafValues></_>
        <_>
          <internalNodes>
            0 -1 225 -2.9969040304422379e-02</internalNodes>
          <leafValues>
            -7.7428340911865234e-01 2.9760196805000305e-02</leafValues></_>
        <_>
          <internalNodes>
            0 -1 289 -1.2858058325946331e-03</internalNodes>
          <leafValues>
            5.4042726755142212e-01 -7.6611854135990143e-02</leafValues></_>
        <_>
          <internalNodes>
            0 -1 501 2.9892703890800476e-01</internalNodes>
          <leafValues>
            -4.3415371328592300e-02 7.4310690164566040e-01</leafValues></_>
        <_>
          <internalNodes>
            0 -1 1054 6.7855492234230042e-03</internalNodes>
          <leafValues>
            8.7680131196975708e-02 -5.0331509113311768e-01</leafValues></_>
        <_>
          <internalNodes>
            0 -1 109 -2.4680294096469879e-02</internalNodes>
          <leafValues>
            -8.2194286584854126e-01 3.9508186280727386e-02</leafValues></_>
        <_>
          <internalNodes>
            0 -1 180 3.7632305175065994e-02</internalNodes>
          <leafValues>
            -8.4280699491500854e-02 4.6596285700798035e-01</leafValues></_>
        <_>
          <internalNodes>
            0 -1 102 1.8140368629246950e-03</internalNodes>
          <leafValues>
            -1.2317193299531937e-01 3.0181542038917542e-01</leafValues></_>
        <_>
          <internalNodes>
            0 -1 148 -9.7721880301833153e-03</internalNodes>
          <leafValues>
            4.0626645088195801e-01 -9.5163777470588684e-02</leafValues></_>
        <_>
          <internalNodes>
            0 -1 993 3.2693579792976379e-02</internalNodes>
          <leafValues>
            -6.1509184539318085e-02 5.0077944993972778e-01</leafValues></_>
        <_>
          <internalNodes>
            0 -1 6 -2.5498896837234497e-01</internalNodes>
          <leafValues>
            3.4262403845787048e-01 -1.1628513783216476e-01</leafValues></_>
        <_>
          <internalNodes>
            0 -1 688 -6.0609221458435059e-02</internalNodes>
          <leafValues>
            4.6415299177169800e-01 -7.9733006656169891e-02</leafValues></_>
        <_>
          <internalNodes>
            0 -1 114 8.3165578544139862e-03</internalNodes>
          <leafValues>
            4.5236986130475998e-02 -8.9637190103530884e-01</leafValues></_>
        <_>
          <internalNodes>
            0 -1 672 -6.8991014268249273e-04</internalNodes>
          <leafValues>
            -4.7275769710540771e-01 5.8681152760982513e-02</leafValues></_>
        <_>
          <internalNodes>
            0 -1 224 -4.9670562148094177e-02</internalNodes>
          <leafValues>
            -6.8856734037399292e-01 4.1667755693197250e-02</leafValues></_>
        <_>
          <internalNodes>
            0 -1 560 7.4453640263527632e-04</internalNodes>
          <leafValues>
            -1.3601154088973999e-01 2.7404233813285828e-01</leafValues></_>
        <_>
          <internalNodes>
            0 -1 686 4.3179549276828766e-02</internalNodes>
          <leafValues>
            7.1642428636550903e-02 -5.2997350692749023e-01</leafValues></_>
        <_>
          <internalNodes>
            0 -1 379 1.1534241959452629e-02</internalNodes>
          <leafValues>
            -9.4655402004718781e-02 3.9325425028800964e-01</leafValues></_>
        <_>
          <internalNodes>
            0 -1 177 -1.4986034948378801e-03</internalNodes>
          <leafValues>
            -5.9112823009490967e-01 6.9526128470897675e-02</leafValues></_>
        <_>
          <internalNodes>
            0 -1 573 2.9521231772378087e-04</internalNodes>
          <leafValues>
            -1.6609422862529755e-01 2.0949280261993408e-01</leafValues></_>
        <_>
          <internalNodes>
            0 -1 459 1.7268320545554161e-02</internalNodes>
          <leafValues>
            1.0222788155078888e-01 -3.6270171403884888e-01</leafValues></_>
        <_>
          <internalNodes>
            0 -1 243 1.7093716189265251e-02</internalNodes>
          <leafValues>
            -8.8134363293647766e-02 3.7111797928810120e-01</leafValues></_>
        <_>
          <internalNodes>
            0 -1 439 -6.5648993477225304e-03</internalNodes>
          <leafValues>
            3.5406708717346191e-01 -9.6546493470668793e-02</leafValues></_>
        <_>
          <internalNodes>
            0 -1 310 1.6934938728809357e-02</internalNodes>
          <leafValues>
            -1.2787234783172607e-01 2.6287516951560974e-01</leafValues></_>
        <_>
          <internalNodes>
            0 -1 885 2.4363975971937180e-02</internalNodes>
          <leafValues>
            -7.9686924815177917e-02 4.4744449853897095e-01</leafValues></_>
        <_>
          <internalNodes>
            0 -1 684 -4.6976424753665924e-02</internalNodes>
          <leafValues>
            -3.9897650480270386e-01 9.5494545996189117e-02</leafValues></_></weakClassifiers></_>
    <!-- stage 6 -->
    <_>
      <maxWeakCount>48</maxWeakCount>
      <stageThreshold>-1.7937631607055664e+00</stageThreshold>
      <weakClassifiers>
        <_>
          <internalNodes>
            0 -1 396 -2.4037629365921021e-02</internalNodes>
          <leafValues>
            3.3148148655891418e-01 -5.5693215131759644e-01</leafValues></_>
        <_>
          <internalNodes>
            0 -1 888 -1.2289637699723244e-02</internalNodes>
          <leafValues>
            5.5558836460113525e-01 -1.9978570938110352e-01</leafValues></_>
        <_>
          <internalNodes>
            0 -1 202 -1.6167029738426208e-02</internalNodes>
          <leafValues>
            3.1716671586036682e-01 -1.8857944011688232e-01</leafValues></_>
        <_>
          <internalNodes>
            0 -1 71 -2.5371432304382324e-02</internalNodes>
          <leafValues>
            4.5616135001182556e-01 -1.0566220432519913e-01</leafValues></_>
        <_>
          <internalNodes>
            0 -1 857 -4.4915992766618729e-03</internalNodes>
          <leafValues>
            7.1150064468383789e-01 -6.3772171735763550e-02</leafValues></_>
        <_>
          <internalNodes>
            0 -1 994 1.7841171473264694e-02</internalNodes>
          <leafValues>
            -9.5981054008007050e-02 3.9214232563972473e-01</leafValues></_>
        <_>
          <internalNodes>
            0 -1 432 -1.0039004497230053e-02</internalNodes>
          <leafValues>
            3.6510509252548218e-01 -1.4907890558242798e-01</leafValues></_>
        <_>
          <internalNodes>
            0 -1 49 8.1865061074495316e-03</internalNodes>
          <leafValues>
            -1.4478871226310730e-01 3.0320048332214355e-01</leafValues></_>
        <_>
          <internalNodes>
            0 -1 39 -1.0872175917029381e-02</internalNodes>
          <leafValues>
            3.7552443146705627e-01 -1.5068067610263824e-01</leafValues></_>
        <_>
          <internalNodes>
            0 -1 453 -9.9849691614508629e-03</internalNodes>
          <leafValues>
            -4.1053873300552368e-01 1.3806639611721039e-01</leafValues></_>
        <_>
          <internalNodes>
            0 -1 1031 -2.6591192930936813e-02</internalNodes>
          <leafValues>
            4.0246853232383728e-01 -1.2428889423608780e-01</leafValues></_>
        <_>
          <internalNodes>
            0 -1 1013 3.2623221632093191e-03</internalNodes>
          <leafValues>
            1.1016305536031723e-01 -5.5756962299346924e-01</leafValues></_>
        <_>
          <internalNodes>
            0 -1 392 -1.8970940727740526e-03</internalNodes>
          <leafValues>
            3.0858969688415527e-01 -1.6165342926979065e-01</leafValues></_>
        <_>
          <internalNodes>
            0 -1 936 -3.3389419317245483e-02</internalNodes>
          <leafValues>
            -4.1849583387374878e-01 1.1208270490169525e-01</leafValues></_>
        <_>
          <internalNodes>
            0 -1 1048 -1.4631452038884163e-02</internalNodes>
          <leafValues>
            2.6795101165771484e-01 -1.4889974892139435e-01</leafValues></_>
        <_>
          <internalNodes>
            0 -1 1018 8.4316544234752655e-03</internalNodes>
          <leafValues>
            1.1916970461606979e-01 -3.4888425469398499e-01</leafValues></_>
        <_>
          <internalNodes>
            0 -1 1043 1.6301801661029458e-03</internalNodes>
          <leafValues>
            -1.0625517368316650e-01 4.0932273864746094e-01</leafValues></_>
        <_>
          <internalNodes>
            0 -1 403 1.7131122946739197e-01</internalNodes>
          <leafValues>
            -4.4953029602766037e-02 8.7965607643127441e-01</leafValues></_>
        <_>
          <internalNodes>
            0 -1 1062 -4.6854596585035324e-03</internalNodes>
          <leafValues>
            -4.9791389703750610e-01 1.0190811008214951e-01</leafValues></_>
        <_>
          <internalNodes>
            0 -1 606 5.0656147301197052e-02</internalNodes>
          <leafValues>
            3.1136875972151756e-02 -8.1954061985015869e-01</leafValues></_>
        <_>
          <internalNodes>
            0 -1 1091 -3.8333276752382517e-03</internalNodes>
          <leafValues>
            3.2483181357383728e-01 -1.1541207879781723e-01</leafValues></_>
        <_>
          <internalNodes>
            0 -1 336 -1.5817426610738039e-03</internalNodes>
          <leafValues>
            3.7348616123199463e-01 -9.5400832593441010e-02</leafValues></_>
        <_>
          <internalNodes>
            0 -1 489 -5.8847344480454922e-03</internalNodes>
          <leafValues>
            3.3784204721450806e-01 -9.8080784082412720e-02</leafValues></_>
        <_>
          <internalNodes>
            0 -1 149 -4.8625420778989792e-02</internalNodes>
          <leafValues>
            3.8318955898284912e-01 -9.4772920012474060e-02</leafValues></_>
        <_>
          <internalNodes>
            0 -1 307 7.2010569274425507e-03</internalNodes>
          <leafValues>
            -1.0191963613033295e-01 3.8629978895187378e-01</leafValues></_>
        <_>
          <internalNodes>
            0 -1 239 1.0959231294691563e-02</internalNodes>
          <leafValues>
            5.2832834422588348e-02 -6.7139774560928345e-01</leafValues></_>
        <_>
          <internalNodes>
            0 -1 553 -1.0194467380642891e-02</internalNodes>
          <leafValues>
            -3.2757157087326050e-01 9.6708923578262329e-02</leafValues></_>
        <_>
          <internalNodes>
            0 -1 600 -2.9786755330860615e-03</internalNodes>
          <leafValues>
            6.0128092765808105e-01 -5.6860487908124924e-02</leafValues></_>
        <_>
          <internalNodes>
            0 -1 803 -4.4723821338266134e-04</internalNodes>
          <leafValues>
            1.9535875320434570e-01 -1.6611586511135101e-01</leafValues></_>
        <_>
          <internalNodes>
            0 -1 317 -5.8024261146783829e-02</internalNodes>
          <leafValues>
            -7.7058160305023193e-01 3.9696875959634781e-02</leafValues></_>
        <_>
          <internalNodes>
            0 -1 825 -2.2804982960224152e-02</internalNodes>
          <leafValues>
            3.4319147467613220e-01 -1.0276555269956589e-01</leafValues></_>
        <_>
          <internalNodes>
            0 -1 959 9.2870786786079407e-02</internalNodes>
          <leafValues>
            -9.1617457568645477e-02 3.3712652325630188e-01</leafValues></_>
        <_>
          <internalNodes>
            0 -1 24 -1.7663594335317612e-02</internalNodes>
          <leafValues>
            3.1429991126060486e-01 -1.1453010886907578e-01</leafValues></_>
        <_>
          <internalNodes>
            0 -1 868 1.4472987502813339e-02</internalNodes>
          <leafValues>
            -9.7647391259670258e-02 3.3389475941658020e-01</leafValues></_>
        <_>
          <internalNodes>
            0 -1 296 -7.6554277911782265e-03</internalNodes>
          <leafValues>
            -5.6849670410156250e-01 6.1951879411935806e-02</leafValues></_>
        <_>
          <internalNodes>
            0 -1 195 -5.1897829398512840e-03</internalNodes>
          <leafValues>
            -6.2740886211395264e-01 4.6060752123594284e-02</leafValues></_>
        <_>
          <internalNodes>
            0 -1 907 9.7575027029961348e-04</internalNodes>
          <leafValues>
            -7.1157388389110565e-02 5.6066763401031494e-01</leafValues></_>
        <_>
          <internalNodes>
            0 -1 193 -5.8605924248695374e-02</internalNodes>
          <leafValues>
            -7.9413461685180664e-01 4.9000870436429977e-02</leafValues></_>
        <_>
          <internalNodes>
            0 -1 745 -9.7039504908025265e-04</internalNodes>
          <leafValues>
            -6.5743780136108398e-01 3.7068665027618408e-02</leafValues></_>
        <_>
          <internalNodes>
            0 -1 1082 4.5400522649288177e-03</internalNodes>
          <leafValues>
            -8.7461091578006744e-02 3.7438842654228210e-01</leafValues></_>
        <_>
          <internalNodes>
            0 -1 859 -6.3316285610198975e-02</internalNodes>
          <leafValues>
            -6.0809624195098877e-01 5.6378617882728577e-02</leafValues></_>
        <_>
          <internalNodes>
            0 -1 130 4.4311977922916412e-02</internalNodes>
          <leafValues>
            6.6942662000656128e-02 -4.2565152049064636e-01</leafValues></_>
        <_>
          <internalNodes>
            0 -1 8 1.0473064333200455e-01</internalNodes>
          <leafValues>
            -1.2737075984477997e-01 2.6897338032722473e-01</leafValues></_>
        <_>
          <internalNodes>
            0 -1 945 5.3785080090165138e-03</internalNodes>
          <leafValues>
            -1.2638103961944580e-01 2.5813505053520203e-01</leafValues></_>
        <_>
          <internalNodes>
            0 -1 473 -1.1841012537479401e-01</internalNodes>
          <leafValues>
            8.1248587369918823e-01 -3.6923125386238098e-02</leafValues></_>
        <_>
          <internalNodes>
            0 -1 900 -1.1853057891130447e-02</internalNodes>
          <leafValues>
            4.2420282959938049e-01 -7.6310299336910248e-02</leafValues></_>
        <_>
          <internalNodes>
            0 -1 358 7.3028239421546459e-04</internalNodes>
          <leafValues>
            7.3427632451057434e-02 -4.7737470269203186e-01</leafValues></_>
        <_>
          <internalNodes>
            0 -1 605 -2.4026751518249512e-02</internalNodes>
          <leafValues>
            -5.1391494274139404e-01 6.0041643679141998e-02</leafValues></_></weakClassifiers></_>
    <!-- stage 7 -->
    <_>
      <maxWeakCount>49</maxWeakCount>
      <stageThreshold>-1.7221020460128784e+00</stageThreshold>
      <weakClassifiers>
        <_>
          <internalNodes>
            0 -1 395 -1.5417376533150673e-02</internalNodes>
          <leafValues>
            3.2890996336936951e-01 -5.4963397979736328e-01</leafValues></_>
        <_>
          <internalNodes>
            0 -1 376 -7.9408707097172737e-03</internalNodes>
          <leafValues>
            6.4139342308044434e-01 -1.8368859589099884e-01</leafValues></_>
        <_>
          <internalNodes>
            0 -1 1015 -2.4961225688457489e-02</internalNodes>
          <leafValues>
            3.9264822006225586e-01 -1.7840054631233215e-01</leafValues></_>
        <_>
          <internalNodes>
            0 -1 811 -2.4046977050602436e-03</internalNodes>
          <leafValues>
            5.0129383802413940e-01 -8.6306951940059662e-02</leafValues></_>
        <_>
          <internalNodes>
            0 -1 316 -1.9360277801752090e-02</internalNodes>
          <leafValues>
            3.9144691824913025e-01 -1.3400769233703613e-01</leafValues></_>
        <_>
          <internalNodes>
            0 -1 174 7.0974947884678841e-03</internalNodes>
          <leafValues>
            -8.3645485341548920e-02 4.9967426061630249e-01</leafValues></_>
        <_>
          <internalNodes>
            0 -1 55 -2.8589726425707340e-03</internalNodes>
          <leafValues>
            2.8732362389564514e-01 -1.6125032305717468e-01</leafValues></_>
        <_>
          <internalNodes>
            0 -1 167 -2.0632006227970123e-02</internalNodes>
          <leafValues>
            -4.8855248093605042e-01 9.3305356800556183e-02</leafValues></_>
        <_>
          <internalNodes>
            0 -1 1097 2.9406701214611530e-03</internalNodes>
          <leafValues>
            -8.3453543484210968e-02 4.4464835524559021e-01</leafValues></_>
        <_>
          <internalNodes>
            0 -1 1064 5.9207261074334383e-04</internalNodes>
          <leafValues>
            9.8479375243186951e-02 -4.4496032595634460e-01</leafValues></_>
        <_>
          <internalNodes>
            0 -1 444 1.6282137483358383e-02</internalNodes>
          <leafValues>
            5.7270977646112442e-02 -6.7905139923095703e-01</leafValues></_>
        <_>
          <internalNodes>
            0 -1 1100 3.6597026046365499e-03</internalNodes>
          <leafValues>
            -1.1336113512516022e-01 3.1980153918266296e-01</leafValues></_>
        <_>
          <internalNodes>
            0 -1 237 8.5832118988037109e-02</internalNodes>
          <leafValues>
            7.5599402189254761e-02 -5.0247734785079956e-01</leafValues></_>
        <_>
          <internalNodes>
            0 -1 467 -3.7776730954647064e-02</internalNodes>
          <leafValues>
            -4.8813161253929138e-01 6.1230491846799850e-02</leafValues></_>
        <_>
          <internalNodes>
            0 -1 273 1.3516236096620560e-02</internalNodes>
          <leafValues>
            -8.7737642228603363e-02 3.5106804966926575e-01</leafValues></_>
        <_>
          <internalNodes>
            0 -1 233 -1.0519498586654663e-01</internalNodes>
          <leafValues>
            3.5987493395805359e-01 -1.0492017120122910e-01</leafValues></_>
        <_>
          <internalNodes>
            0 -1 39 1.5474643558263779e-02</internalNodes>
          <leafValues>
            -1.0125927627086639e-01 3.9727318286895752e-01</leafValues></_>
        <_>
          <internalNodes>
            0 -1 873 7.9798756632953882e-04</internalNodes>
          <leafValues>
            -1.1848498880863190e-01 2.9797899723052979e-01</leafValues></_>
        <_>
          <internalNodes>
            0 -1 513 -5.9174778871238232e-03</internalNodes>
          <leafValues>
            -2.9173621535301208e-01 1.2899829447269440e-01</leafValues></_>
        <_>
          <internalNodes>
            0 -1 341 7.5729023665189743e-03</internalNodes>
          <leafValues>
            -1.0114614665508270e-01 3.4147304296493530e-01</leafValues></_>
        <_>
          <internalNodes>
            0 -1 140 4.8852385953068733e-03</internalNodes>
          <leafValues>
            -1.7048040032386780e-01 2.0157286524772644e-01</leafValues></_>
        <_>
          <internalNodes>
            0 -1 939 -3.0582323670387268e-03</internalNodes>
          <leafValues>
            -4.2597287893295288e-01 8.0359026789665222e-02</leafValues></_>
        <_>
          <internalNodes>
            0 -1 760 3.6618835292756557e-04</internalNodes>
          <leafValues>
            -1.2365096062421799e-01 2.5898107886314392e-01</leafValues></_>
        <_>
          <internalNodes>
            0 -1 88 1.7212581634521484e-01</internalNodes>
          <leafValues>
            5.5866990238428116e-02 -5.7505810260772705e-01</leafValues></_>
        <_>
          <internalNodes>
            0 -1 838 -3.6193842533975840e-03</internalNodes>
          <leafValues>
            -6.7272722721099854e-01 4.4093552976846695e-02</leafValues></_>
        <_>
          <internalNodes>
            0 -1 614 7.0143237709999084e-02</internalNodes>
          <leafValues>
            -6.6813848912715912e-02 5.2236807346343994e-01</leafValues></_>
        <_>
          <internalNodes>
            0 -1 61 1.1580156162381172e-02</internalNodes>
          <leafValues>
            4.8957835882902145e-02 -6.5770471096038818e-01</leafValues></_>
        <_>
          <internalNodes>
            0 -1 503 1.0283431038260460e-03</internalNodes>
          <leafValues>
            -9.7106210887432098e-02 3.3460649847984314e-01</leafValues></_>
        <_>
          <internalNodes>
            0 -1 772 -4.1564172715879977e-04</internalNodes>
          <leafValues>
            -4.4972613453865051e-01 7.2527475655078888e-02</leafValues></_>
        <_>
          <internalNodes>
            0 -1 966 1.1890033259987831e-02</internalNodes>
          <leafValues>
            -1.0369756072759628e-01 3.0806758999824524e-01</leafValues></_>
        <_>
          <internalNodes>
            0 -1 472 -8.1995408982038498e-03</internalNodes>
          <leafValues>
            3.2920432090759277e-01 -1.0000456124544144e-01</leafValues></_>
        <_>
          <internalNodes>
            0 -1 1084 -3.2466799020767212e-03</internalNodes>
          <leafValues>
            5.1336145401000977e-01 -5.9856049716472626e-02</leafValues></_>
        <_>
          <internalNodes>
            0 -1 1034 -9.4052609056234360e-03</internalNodes>
          <leafValues>
            -5.3684127330780029e-01 6.4924605190753937e-02</leafValues></_>
        <_>
          <internalNodes>
            0 -1 773 1.2641937937587500e-03</internalNodes>
          <leafValues>
            6.1384908854961395e-02 -4.8307248950004578e-01</leafValues></_>
        <_>
          <internalNodes>
            0 -1 811 5.7297560852020979e-04</internalNodes>
          <leafValues>
            -1.0547916591167450e-01 2.9879578948020935e-01</leafValues></_>
        <_>
          <internalNodes>
            0 -1 17 -5.8292774483561516e-03</internalNodes>
          <leafValues>
            -3.6252164840698242e-01 9.3649275600910187e-02</leafValues></_>
        <_>
          <internalNodes>
            0 -1 582 -3.0719649046659470e-02</internalNodes>
          <leafValues>
            3.5406515002250671e-01 -1.1029709130525589e-01</leafValues></_>
        <_>
          <internalNodes>
            0 -1 349 2.5408260524272919e-02</internalNodes>
          <leafValues>
            9.5837071537971497e-02 -3.3158594369888306e-01</leafValues></_>
        <_>
          <internalNodes>
            0 -1 120 -1.4215737581253052e-02</internalNodes>
          <leafValues>
            2.8717339038848877e-01 -1.3337594270706177e-01</leafValues></_>
        <_>
          <internalNodes>
            0 -1 369 1.6881451010704041e-02</internalNodes>
          <leafValues>
            -8.9559353888034821e-02 3.5796076059341431e-01</leafValues></_>
        <_>
          <internalNodes>
            0 -1 739 -1.4914421364665031e-02</internalNodes>
          <leafValues>
            -6.7191290855407715e-01 4.9772843718528748e-02</leafValues></_>
        <_>
          <internalNodes>
            0 -1 965 -3.3054672181606293e-02</internalNodes>
          <leafValues>
            -5.8662515878677368e-01 4.0564969182014465e-02</leafValues></_>
        <_>
          <internalNodes>
            0 -1 920 -4.6928254887461662e-03</internalNodes>
          <leafValues>
            2.3275139927864075e-01 -1.4427474141120911e-01</leafValues></_>
        <_>
          <internalNodes>
            0 -1 732 -1.3828368391841650e-03</internalNodes>
          <leafValues>
            2.0392225682735443e-01 -1.4692033827304840e-01</leafValues></_>
        <_>
          <internalNodes>
            0 -1 774 -2.4625875521451235e-03</internalNodes>
          <leafValues>
            -6.3122355937957764e-01 4.7554519027471542e-02</leafValues></_>
        <_>
          <internalNodes>
            0 -1 870 -1.2778613017871976e-03</internalNodes>
          <leafValues>
            2.3329046368598938e-01 -1.3836272060871124e-01</leafValues></_>
        <_>
          <internalNodes>
            0 -1 720 -1.8234135350212455e-03</internalNodes>
          <leafValues>
            6.5783625841140747e-01 -4.2311739176511765e-02</leafValues></_>
        <_>
          <internalNodes>
            0 -1 463 3.2997995615005493e-01</internalNodes>
          <leafValues>
            -2.9942976310849190e-02 8.3305794000625610e-01</leafValues></_>
        <_>
          <internalNodes>
            0 -1 268 2.8205900453031063e-03</internalNodes>
          <leafValues>
            1.0858055949211121e-01 -2.9111528396606445e-01</leafValues></_></weakClassifiers></_>
    <!-- stage 8 -->
    <_>
      <maxWeakCount>54</maxWeakCount>
      <stageThreshold>-1.6403387784957886e+00</stageThreshold>
      <weakClassifiers>
        <_>
          <internalNodes>
            0 -1 908 -1.0429102927446365e-02</internalNodes>
          <leafValues>
            5.5810147523880005e-01 -4.8484063148498535e-01</leafValues></_>
        <_>
          <internalNodes>
            0 -1 930 -9.5614138990640640e-03</internalNodes>
          <leafValues>
            3.6331143975257874e-01 -2.5188830494880676e-01</leafValues></_>
        <_>
          <internalNodes>
            0 -1 816 -1.9764481112360954e-03</internalNodes>
          <leafValues>
            5.6062376499176025e-01 -1.3322004675865173e-01</leafValues></_>
        <_>
          <internalNodes>
            0 -1 186 -1.9953517243266106e-02</internalNodes>
          <leafValues>
            3.9431324601173401e-01 -1.2180279195308685e-01</leafValues></_>
        <_>
          <internalNodes>
            0 -1 1010 6.0195870697498322e-02</internalNodes>
          <leafValues>
            -1.1201954632997513e-01 4.4566541910171509e-01</leafValues></_>
        <_>
          <internalNodes>
            0 -1 450 3.0596610158681870e-02</internalNodes>
          <leafValues>
            -1.0500944405794144e-01 4.2504099011421204e-01</leafValues></_>
        <_>
          <internalNodes>
            0 -1 3 -2.2660473361611366e-02</internalNodes>
          <leafValues>
            3.8836285471916199e-01 -1.1197751760482788e-01</leafValues></_>
        <_>
          <internalNodes>
            0 -1 267 4.6188581734895706e-02</internalNodes>
          <leafValues>
            8.1962376832962036e-02 -5.2757412195205688e-01</leafValues></_>
        <_>
          <internalNodes>
            0 -1 332 1.7779979854822159e-02</internalNodes>
          <leafValues>
            -1.1073206365108490e-01 4.2572963237762451e-01</leafValues></_>
        <_>
          <internalNodes>
            0 -1 433 -3.8799241185188293e-02</internalNodes>
          <leafValues>
            -4.8424711823463440e-01 7.5074344873428345e-02</leafValues></_>
        <_>
          <internalNodes>
            0 -1 928 4.0929047390818596e-03</internalNodes>
          <leafValues>
            -1.0088729113340378e-01 3.9212128520011902e-01</leafValues></_>
        <_>
          <internalNodes>
            0 -1 456 9.8910992965102196e-03</internalNodes>
          <leafValues>
            1.2170861661434174e-01 -4.3324759602546692e-01</leafValues></_>
        <_>
          <internalNodes>
            0 -1 185 -1.5625602100044489e-03</internalNodes>
          <leafValues>
            -5.7488805055618286e-01 4.3528687208890915e-02</leafValues></_>
        <_>
          <internalNodes>
            0 -1 137 2.1725710481405258e-02</internalNodes>
          <leafValues>
            -1.0452892631292343e-01 3.5434949398040771e-01</leafValues></_>
        <_>
          <internalNodes>
            0 -1 1023 -1.3129010330885649e-03</internalNodes>
          <leafValues>
            -3.8553845882415771e-01 1.0071932524442673e-01</leafValues></_>
        <_>
          <internalNodes>
            0 -1 647 -7.7377939596772194e-03</internalNodes>
          <leafValues>
            5.2886259555816650e-01 -6.3326209783554077e-02</leafValues></_>
        <_>
          <internalNodes>
            0 -1 278 1.5506023773923516e-03</internalNodes>
          <leafValues>
            7.7000312507152557e-02 -4.3789547681808472e-01</leafValues></_>
        <_>
          <internalNodes>
            0 -1 891 4.2691258713603020e-03</internalNodes>
          <leafValues>
            7.3942989110946655e-02 -4.6731743216514587e-01</leafValues></_>
        <_>
          <internalNodes>
            0 -1 755 -4.7500329092144966e-03</internalNodes>
          <leafValues>
            8.0182623863220215e-01 -4.8192154616117477e-02</leafValues></_>
        <_>
          <internalNodes>
            0 -1 879 -6.9568291306495667e-02</internalNodes>
          <leafValues>
            -6.4583617448806763e-01 5.3073901683092117e-02</leafValues></_>
        <_>
          <internalNodes>
            0 -1 1069 2.0927959121763706e-03</internalNodes>
          <leafValues>
            4.3072383850812912e-02 -5.8523625135421753e-01</leafValues></_>
        <_>
          <internalNodes>
            0 -1 1086 -1.2377342209219933e-03</internalNodes>
          <leafValues>
            2.9685044288635254e-01 -1.1073940247297287e-01</leafValues></_>
        <_>
          <internalNodes>
            0 -1 66 2.1456256508827209e-02</internalNodes>
          <leafValues>
            7.1108512580394745e-02 -3.8695487380027771e-01</leafValues></_>
        <_>
          <internalNodes>
            0 -1 809 2.4017300456762314e-02</internalNodes>
          <leafValues>
            -9.7126007080078125e-02 3.0021625757217407e-01</leafValues></_>
        <_>
          <internalNodes>
            0 -1 203 1.0911166667938232e-01</internalNodes>
          <leafValues>
            -7.0560663938522339e-02 4.3344691395759583e-01</leafValues></_>
        <_>
          <internalNodes>
            0 -1 318 4.9116943031549454e-02</internalNodes>
          <leafValues>
            5.9011675417423248e-02 -5.5603539943695068e-01</leafValues></_>
        <_>
          <internalNodes>
            0 -1 492 1.5615304000675678e-03</internalNodes>
          <leafValues>
            -9.1644600033760071e-02 3.2939624786376953e-01</leafValues></_>
        <_>
          <internalNodes>
            0 -1 917 -5.6071151047945023e-03</internalNodes>
          <leafValues>
            -5.4694473743438721e-01 5.5871568620204926e-02</leafValues></_>
        <_>
          <internalNodes>
            0 -1 730 5.6884158402681351e-04</internalNodes>
          <leafValues>
            -1.6329716145992279e-01 1.6739794611930847e-01</leafValues></_>
        <_>
          <internalNodes>
            0 -1 382 -2.8914150316268206e-03</internalNodes>
          <leafValues>
            3.8701623678207397e-01 -9.2406980693340302e-02</leafValues></_>
        <_>
          <internalNodes>
            0 -1 143 -5.7204090058803558e-02</internalNodes>
          <leafValues>
            -6.5938889980316162e-01 4.5478370040655136e-02</leafValues></_>
        <_>
          <internalNodes>
            0 -1 1005 -2.0539802499115467e-03</internalNodes>
          <leafValues>
            3.4222829341888428e-01 -8.4283992648124695e-02</leafValues></_>
        <_>
          <internalNodes>
            0 -1 1059 1.1044224957004189e-03</internalNodes>
          <leafValues>
            7.5077570974826813e-02 -3.6928597092628479e-01</leafValues></_>
        <_>
          <internalNodes>
            0 -1 649 8.5380509495735168e-02</internalNodes>
          <leafValues>
            -4.7144573181867599e-02 7.9830771684646606e-01</leafValues></_>
        <_>
          <internalNodes>
            0 -1 398 3.5033007152378559e-03</internalNodes>
          <leafValues>
            1.6181905567646027e-01 -1.9955314695835114e-01</leafValues></_>
        <_>
          <internalNodes>
            0 -1 164 -2.4600066244602203e-02</internalNodes>
          <leafValues>
            -6.2741237878799438e-01 4.2846590280532837e-02</leafValues></_>
        <_>
          <internalNodes>
            0 -1 104 2.7834162116050720e-02</internalNodes>
          <leafValues>
            4.9347903579473495e-02 -5.0885653495788574e-01</leafValues></_>
        <_>
          <internalNodes>
            0 -1 1033 7.9577323049306870e-03</internalNodes>
          <leafValues>
            -6.5581031143665314e-02 4.5333978533744812e-01</leafValues></_>
        <_>
          <internalNodes>
            0 -1 810 -3.2903149985941127e-05</internalNodes>
          <leafValues>
            2.0154467225074768e-01 -1.3786233961582184e-01</leafValues></_>
        <_>
          <internalNodes>
            0 -1 831 1.1597007513046265e-02</internalNodes>
          <leafValues>
            -8.7157025933265686e-02 3.1559154391288757e-01</leafValues></_>
        <_>
          <internalNodes>
            0 -1 483 -4.4860928319394588e-03</internalNodes>
          <leafValues>
            3.6995658278465271e-01 -7.7393278479576111e-02</leafValues></_>
        <_>
          <internalNodes>
            0 -1 764 -3.8512486964464188e-02</internalNodes>
          <leafValues>
            -4.3423968553543091e-01 7.0614017546176910e-02</leafValues></_>
        <_>
          <internalNodes>
            0 -1 96 4.1078045964241028e-02</internalNodes>
          <leafValues>
            -9.0820431709289551e-02 3.1801140308380127e-01</leafValues></_>
        <_>
          <internalNodes>
            0 -1 222 -1.2377487495541573e-02</internalNodes>
          <leafValues>
            3.1360331177711487e-01 -9.6823900938034058e-02</leafValues></_>
        <_>
          <internalNodes>
            0 -1 1046 -4.4391900300979614e-03</internalNodes>
          <leafValues>
            -5.4775190353393555e-01 4.9994122236967087e-02</leafValues></_>
        <_>
          <internalNodes>
            0 -1 18 2.8706498444080353e-02</internalNodes>
          <leafValues>
            7.8823313117027283e-02 -3.0546665191650391e-01</leafValues></_>
        <_>
          <internalNodes>
            0 -1 292 -3.1537540256977081e-02</internalNodes>
          <leafValues>
            -7.6517122983932495e-01 3.2450500875711441e-02</leafValues></_>
        <_>
          <internalNodes>
            0 -1 525 -3.8212691433727741e-03</internalNodes>
          <leafValues>
            -8.5771846771240234e-01 2.2787215188145638e-02</leafValues></_>
        <_>
          <internalNodes>
            0 -1 295 5.0611272454261780e-02</internalNodes>
          <leafValues>
            -8.5562042891979218e-02 3.3950760960578918e-01</leafValues></_>
        <_>
          <internalNodes>
            0 -1 715 -8.5447158198803663e-04</internalNodes>
          <leafValues>
            1.6990494728088379e-01 -1.6183710098266602e-01</leafValues></_>
        <_>
          <internalNodes>
            0 -1 80 -3.3343562972731888e-04</internalNodes>
          <leafValues>
            -2.3182113468647003e-01 1.1729483306407928e-01</leafValues></_>
        <_>
          <internalNodes>
            0 -1 672 1.3981201918795705e-03</internalNodes>
          <leafValues>
            4.5917574316263199e-02 -5.2050143480300903e-01</leafValues></_>
        <_>
          <internalNodes>
            0 -1 621 1.3901451602578163e-03</internalNodes>
          <leafValues>
            -1.5683037042617798e-01 1.8290926516056061e-01</leafValues></_>
        <_>
          <internalNodes>
            0 -1 578 -5.8850315399467945e-03</internalNodes>
          <leafValues>
            2.5188726186752319e-01 -9.9032014608383179e-02</leafValues></_></weakClassifiers></_>
    <!-- stage 9 -->
    <_>
      <maxWeakCount>57</maxWeakCount>
      <stageThreshold>-1.7304059267044067e+00</stageThreshold>
      <weakClassifiers>
        <_>
          <internalNodes>
            0 -1 542 4.0900729596614838e-02</internalNodes>
          <leafValues>
            -5.2083909511566162e-01 4.2148759961128235e-01</leafValues></_>
        <_>
          <internalNodes>
            0 -1 33 -3.2714419066905975e-02</internalNodes>
          <leafValues>
            4.6826094388961792e-01 -2.1848084032535553e-01</leafValues></_>
        <_>
          <internalNodes>
            0 -1 864 -8.8238026946783066e-03</internalNodes>
          <leafValues>
            4.8450133204460144e-01 -1.2810741364955902e-01</leafValues></_>
        <_>
          <internalNodes>
            0 -1 1021 -1.8871854990720749e-02</internalNodes>
          <leafValues>
            3.2953622937202454e-01 -1.3221183419227600e-01</leafValues></_>
        <_>
          <internalNodes>
            0 -1 533 -1.8595416098833084e-02</internalNodes>
          <leafValues>
            6.0155987739562988e-01 -8.0918371677398682e-02</leafValues></_>
        <_>
          <internalNodes>
            0 -1 119 6.6263750195503235e-03</internalNodes>
          <leafValues>
            -7.9997785389423370e-02 4.4412469863891602e-01</leafValues></_>
        <_>
          <internalNodes>
            0 -1 490 -3.8582619279623032e-02</internalNodes>
          <leafValues>
            3.3255884051322937e-01 -1.1226949095726013e-01</leafValues></_>
        <_>
          <internalNodes>
            0 -1 854 1.3795604929327965e-02</internalNodes>
          <leafValues>
            -4.2478073388338089e-02 7.9833024740219116e-01</leafValues></_>
        <_>
          <internalNodes>
            0 -1 154 5.3940262645483017e-02</internalNodes>
          <leafValues>
            -7.0952512323856354e-02 4.6781489253044128e-01</leafValues></_>
        <_>
          <internalNodes>
            0 -1 11 -4.1275733709335327e-01</internalNodes>
          <leafValues>
            3.9673677086830139e-01 -8.2719914615154266e-02</leafValues></_>
        <_>
          <internalNodes>
            0 -1 993 2.3982852697372437e-02</internalNodes>
          <leafValues>
            -9.9007904529571533e-02 3.7964385747909546e-01</leafValues></_>
        <_>
          <internalNodes>
            0 -1 511 -3.5661760717630386e-02</internalNodes>
          <leafValues>
            -4.3596869707107544e-01 9.3418195843696594e-02</leafValues></_>
        <_>
          <internalNodes>
            0 -1 174 5.8659743517637253e-03</internalNodes>
          <leafValues>
            -8.2940854132175446e-02 3.6295565962791443e-01</leafValues></_>
        <_>
          <internalNodes>
            0 -1 189 -1.0149198770523071e-01</internalNodes>
          <leafValues>
            -4.1229969263076782e-01 8.0690063536167145e-02</leafValues></_>
        <_>
          <internalNodes>
            0 -1 188 1.5945199411362410e-03</internalNodes>
          <leafValues>
            7.3181934654712677e-02 -5.1571565866470337e-01</leafValues></_>
        <_>
          <internalNodes>
            0 -1 558 3.2291892915964127e-02</internalNodes>
          <leafValues>
            5.1448557525873184e-02 -5.2590507268905640e-01</leafValues></_>
        <_>
          <internalNodes>
            0 -1 650 -1.6856212168931961e-02</internalNodes>
          <leafValues>
            6.9380873441696167e-01 -4.6476360410451889e-02</leafValues></_>
        <_>
          <internalNodes>
            0 -1 1101 -5.4094251245260239e-03</internalNodes>
          <leafValues>
            4.0132889151573181e-01 -7.2322271764278412e-02</leafValues></_>
        <_>
          <internalNodes>
            0 -1 400 -1.8642669543623924e-02</internalNodes>
          <leafValues>
            -5.5834084749221802e-01 5.6891907006502151e-02</leafValues></_>
        <_>
          <internalNodes>
            0 -1 1057 2.8121143113821745e-03</internalNodes>
          <leafValues>
            -1.1375488340854645e-01 2.8915789723396301e-01</leafValues></_>
        <_>
          <internalNodes>
            0 -1 1093 1.5560347819700837e-03</internalNodes>
          <leafValues>
            6.5380938351154327e-02 -5.6455081701278687e-01</leafValues></_>
        <_>
          <internalNodes>
            0 -1 1049 2.6890411972999573e-03</internalNodes>
          <leafValues>
            5.3100790828466415e-02 -5.2810144424438477e-01</leafValues></_>
        <_>
          <internalNodes>
            0 -1 425 1.3737889938056469e-02</internalNodes>
          <leafValues>
            -1.0707419365644455e-01 2.8249087929725647e-01</leafValues></_>
        <_>
          <internalNodes>
            0 -1 940 -1.5332028269767761e-02</internalNodes>
          <leafValues>
            4.5510143041610718e-01 -7.0496164262294769e-02</leafValues></_>
        <_>
          <internalNodes>
            0 -1 608 -4.2056187521666288e-04</internalNodes>
          <leafValues>
            3.5971099138259888e-01 -7.6279841363430023e-02</leafValues></_>
        <_>
          <internalNodes>
            0 -1 462 6.8076066672801971e-03</internalNodes>
          <leafValues>
            1.1049934476613998e-01 -2.6804292201995850e-01</leafValues></_>
        <_>
          <internalNodes>
            0 -1 325 -8.3347856998443604e-03</internalNodes>
          <leafValues>
            -7.1464824676513672e-01 3.8728471845388412e-02</leafValues></_>
        <_>
          <internalNodes>
            0 -1 608 1.3851761468686163e-04</internalNodes>
          <leafValues>
            -1.2812800705432892e-01 2.1338672935962677e-01</leafValues></_>
        <_>
          <internalNodes>
            0 -1 694 -8.9915230637416244e-04</internalNodes>
          <leafValues>
            -6.5941727161407471e-01 4.3142683804035187e-02</leafValues></_>
        <_>
          <internalNodes>
            0 -1 628 -1.2039351277053356e-03</internalNodes>
          <leafValues>
            -3.8220152258872986e-01 6.1976209282875061e-02</leafValues></_>
        <_>
          <internalNodes>
            0 -1 798 2.4652324616909027e-02</internalNodes>
          <leafValues>
            3.8543742150068283e-02 -6.4181137084960938e-01</leafValues></_>
        <_>
          <internalNodes>
            0 -1 589 -5.0623632967472076e-02</internalNodes>
          <leafValues>
            -4.6247476339340210e-01 5.5940501391887665e-02</leafValues></_>
        <_>
          <internalNodes>
            0 -1 393 -4.1503375396132469e-03</internalNodes>
          <leafValues>
            3.2426729798316956e-01 -8.5538096725940704e-02</leafValues></_>
        <_>
          <internalNodes>
            0 -1 442 3.5738756414502859e-03</internalNodes>
          <leafValues>
            4.2446922510862350e-02 -6.2398809194564819e-01</leafValues></_>
        <_>
          <internalNodes>
            0 -1 499 7.2961649857461452e-04</internalNodes>
          <leafValues>
            -1.0551390051841736e-01 2.5759261846542358e-01</leafValues></_>
        <_>
          <internalNodes>
            0 -1 281 -8.0255985260009766e-02</internalNodes>
          <leafValues>
            7.1735125780105591e-01 -3.7583250552415848e-02</leafValues></_>
        <_>
          <internalNodes>
            0 -1 1095 5.9928037226200104e-03</internalNodes>
          <leafValues>
            7.3918446898460388e-02 -4.4726693630218506e-01</leafValues></_>
        <_>
          <internalNodes>
            0 -1 974 1.8942605238407850e-03</internalNodes>
          <leafValues>
            -9.2277184128761292e-02 3.0646491050720215e-01</leafValues></_>
        <_>
          <internalNodes>
            0 -1 820 -7.3119523003697395e-03</internalNodes>
          <leafValues>
            -6.3115388154983521e-01 4.3406769633293152e-02</leafValues></_>
        <_>
          <internalNodes>
            0 -1 1090 1.1372813023626804e-03</internalNodes>
          <leafValues>
            -1.1093821376562119e-01 2.7716511487960815e-01</leafValues></_>
        <_>
          <internalNodes>
            0 -1 443 -8.2326959818601608e-03</internalNodes>
          <leafValues>
            -7.0600014925003052e-01 3.9902139455080032e-02</leafValues></_>
        <_>
          <internalNodes>
            0 -1 743 -2.1562330424785614e-02</internalNodes>
          <leafValues>
            2.5178334116935730e-01 -1.0852164030075073e-01</leafValues></_>
        <_>
          <internalNodes>
            0 -1 247 -4.3769501149654388e-02</internalNodes>
          <leafValues>
            -5.7744824886322021e-01 4.7426879405975342e-02</leafValues></_>
        <_>
          <internalNodes>
            0 -1 717 4.3483814806677401e-05</internalNodes>
          <leafValues>
            -1.4542461931705475e-01 1.8251718580722809e-01</leafValues></_>
        <_>
          <internalNodes>
            0 -1 220 2.6040025055408478e-02</internalNodes>
          <leafValues>
            -6.4845725893974304e-02 4.3857049942016602e-01</leafValues></_>
        <_>
          <internalNodes>
            0 -1 1017 1.7961877165362239e-03</internalNodes>
          <leafValues>
            7.4625380337238312e-02 -3.7445822358131409e-01</leafValues></_>
        <_>
          <internalNodes>
            0 -1 348 -7.4877997394651175e-04</internalNodes>
          <leafValues>
            -3.1311866641044617e-01 8.1347651779651642e-02</leafValues></_>
        <_>
          <internalNodes>
            0 -1 315 2.9461964964866638e-02</internalNodes>
          <leafValues>
            2.6239803060889244e-02 -8.5173946619033813e-01</leafValues></_>
        <_>
          <internalNodes>
            0 -1 956 -2.4979203008115292e-03</internalNodes>
          <leafValues>
            2.6027116179466248e-01 -1.0668529570102692e-01</leafValues></_>
        <_>
          <internalNodes>
            0 -1 914 2.4694544263184071e-03</internalNodes>
          <leafValues>
            -1.0991699248552322e-01 2.4412946403026581e-01</leafValues></_>
        <_>
          <internalNodes>
            0 -1 911 -1.7508909106254578e-02</internalNodes>
          <leafValues>
            -5.9713339805603027e-01 4.9689970910549164e-02</leafValues></_>
        <_>
          <internalNodes>
            0 -1 1077 -4.8893978819251060e-03</internalNodes>
          <leafValues>
            -4.7114485502243042e-01 5.2320383489131927e-02</leafValues></_>
        <_>
          <internalNodes>
            0 -1 297 -3.7725809961557388e-02</internalNodes>
          <leafValues>
            -6.2821984291076660e-01 3.4137599170207977e-02</leafValues></_>
        <_>
          <internalNodes>
            0 -1 146 -1.3209971785545349e-01</internalNodes>
          <leafValues>
            -6.6561335325241089e-01 2.9432946816086769e-02</leafValues></_>
        <_>
          <internalNodes>
            0 -1 827 5.7648890651762486e-04</internalNodes>
          <leafValues>
            -1.1352128535509109e-01 2.1748049557209015e-01</leafValues></_>
        <_>
          <internalNodes>
            0 -1 623 1.9448246806859970e-02</internalNodes>
          <leafValues>
            4.4345051050186157e-02 -5.7162237167358398e-01</leafValues></_>
        <_>
          <internalNodes>
            0 -1 707 -3.7971287965774536e-02</internalNodes>
          <leafValues>
            5.3689676523208618e-01 -5.0002012401819229e-02</leafValues></_></weakClassifiers></_>
    <!-- stage 10 -->
    <_>
      <maxWeakCount>49</maxWeakCount>
      <stageThreshold>-1.6245806217193604e+00</stageThreshold>
      <weakClassifiers>
        <_>
          <internalNodes>
            0 -1 616 6.6712804138660431e-02</internalNodes>
          <leafValues>
            -5.0309556722640991e-01 4.4900661706924438e-01</leafValues></_>
        <_>
          <internalNodes>
            0 -1 111 -4.2083650827407837e-02</internalNodes>
          <leafValues>
            4.7262549400329590e-01 -1.9750227034091949e-01</leafValues></_>
        <_>
          <internalNodes>
            0 -1 171 1.8716070801019669e-02</internalNodes>
          <leafValues>
            -1.5451738238334656e-01 3.6461353302001953e-01</leafValues></_>
        <_>
          <internalNodes>
            0 -1 69 -2.3199196904897690e-02</internalNodes>
          <leafValues>
            3.9149424433708191e-01 -1.2785890698432922e-01</leafValues></_>
        <_>
          <internalNodes>
            0 -1 343 1.9948404282331467e-02</internalNodes>
          <leafValues>
            -1.1713036894798279e-01 4.4790285825729370e-01</leafValues></_>
        <_>
          <internalNodes>
            0 -1 1058 -1.1382603552192450e-03</internalNodes>
          <leafValues>
            -5.0177395343780518e-01 8.8781952857971191e-02</leafValues></_>
        <_>
          <internalNodes>
            0 -1 527 2.0024936646223068e-02</internalNodes>
          <leafValues>
            9.7119234502315521e-02 -4.9787914752960205e-01</leafValues></_>
        <_>
          <internalNodes>
            0 -1 835 7.3244739323854446e-03</internalNodes>
          <leafValues>
            -1.0316358506679535e-01 3.5522511601448059e-01</leafValues></_>
        <_>
          <internalNodes>
            0 -1 533 -1.2584102340042591e-02</internalNodes>
          <leafValues>
            4.3685963749885559e-01 -8.1525422632694244e-02</leafValues></_>
        <_>
          <internalNodes>
            0 -1 752 -2.2098928689956665e-02</internalNodes>
          <leafValues>
            9.1194349527359009e-01 -3.6523785442113876e-02</leafValues></_>
        <_>
          <internalNodes>
            0 -1 197 -1.4084644615650177e-02</internalNodes>
          <leafValues>
            -5.4164761304855347e-01 6.6755056381225586e-02</leafValues></_>
        <_>
          <internalNodes>
            0 -1 1036 2.5680370628833771e-02</internalNodes>
          <leafValues>
            -1.1322727799415588e-01 2.9169934988021851e-01</leafValues></_>
        <_>
          <internalNodes>
            0 -1 1028 -6.4716683700680733e-03</internalNodes>
          <leafValues>
            2.6326939463615417e-01 -1.5955740213394165e-01</leafValues></_>
        <_>
          <internalNodes>
            0 -1 429 1.5155156143009663e-02</internalNodes>
          <leafValues>
            -1.5014356374740601e-01 2.1225093305110931e-01</leafValues></_>
        <_>
          <internalNodes>
            0 -1 170 1.1699527967721224e-03</internalNodes>
          <leafValues>
            -1.5296624600887299e-01 2.2387465834617615e-01</leafValues></_>
        <_>
          <internalNodes>
            0 -1 791 -2.5048016104847193e-03</internalNodes>
          <leafValues>
            -4.9487122893333435e-01 7.3626399040222168e-02</leafValues></_>
        <_>
          <internalNodes>
            0 -1 806 -1.7124708741903305e-02</internalNodes>
          <leafValues>
            7.3755127191543579e-01 -4.8749234527349472e-02</leafValues></_>
        <_>
          <internalNodes>
            0 -1 727 3.3786674612201750e-04</internalNodes>
          <leafValues>
            8.2734279334545135e-02 -4.0769606828689575e-01</leafValues></_>
        <_>
          <internalNodes>
            0 -1 213 1.7187669873237610e-02</internalNodes>
          <leafValues>
            -1.0676315426826477e-01 2.7810528874397278e-01</leafValues></_>
        <_>
          <internalNodes>
            0 -1 354 -1.6929263249039650e-02</internalNodes>
          <leafValues>
            2.9780057072639465e-01 -9.8546959459781647e-02</leafValues></_>
        <_>
          <internalNodes>
            0 -1 517 6.7505806684494019e-02</internalNodes>
          <leafValues>
            -6.2288630753755569e-02 5.2221298217773438e-01</leafValues></_>
        <_>
          <internalNodes>
            0 -1 1066 -1.2897562701255083e-03</internalNodes>
          <leafValues>
            -4.0454161167144775e-01 7.4347652494907379e-02</leafValues></_>
        <_>
          <internalNodes>
            0 -1 882 -4.4397644698619843e-02</internalNodes>
          <leafValues>
            2.5396993756294250e-01 -1.1382396519184113e-01</leafValues></_>
        <_>
          <internalNodes>
            0 -1 999 1.0621051304042339e-02</internalNodes>
          <leafValues>
            -7.4615873396396637e-02 4.4397598505020142e-01</leafValues></_>
        <_>
          <internalNodes>
            0 -1 728 -4.8134961980395019e-04</internalNodes>
          <leafValues>
            -4.9455738067626953e-01 6.6482692956924438e-02</leafValues></_>
        <_>
          <internalNodes>
            0 -1 749 -4.6431574446614832e-05</internalNodes>
          <leafValues>
            1.4249043166637421e-01 -1.8650548160076141e-01</leafValues></_>
        <_>
          <internalNodes>
            0 -1 1044 -7.8820697963237762e-03</internalNodes>
          <leafValues>
            4.4463479518890381e-01 -6.2835738062858582e-02</leafValues></_>
        <_>
          <internalNodes>
            0 -1 303 -1.1902060359716415e-02</internalNodes>
          <leafValues>
            -6.6087871789932251e-01 3.8885205984115601e-02</leafValues></_>
        <_>
          <internalNodes>
            0 -1 81 -7.0919036865234375e-02</internalNodes>
          <leafValues>
            -6.0684108734130859e-01 3.7097327411174774e-02</leafValues></_>
        <_>
          <internalNodes>
            0 -1 474 3.3083569258451462e-02</internalNodes>
          <leafValues>
            3.3097203820943832e-02 -6.5681016445159912e-01</leafValues></_>
        <_>
          <internalNodes>
            0 -1 970 6.7433631047606468e-03</internalNodes>
          <leafValues>
            3.7361651659011841e-02 -5.8900022506713867e-01</leafValues></_>
        <_>
          <internalNodes>
            0 -1 740 2.5336151011288166e-03</internalNodes>
          <leafValues>
            -7.6826408505439758e-02 3.5397589206695557e-01</leafValues></_>
        <_>
          <internalNodes>
            0 -1 789 1.3593812473118305e-03</internalNodes>
          <leafValues>
            5.3881168365478516e-02 -5.1680707931518555e-01</leafValues></_>
        <_>
          <internalNodes>
            0 -1 257 -1.3356540584936738e-03</internalNodes>
          <leafValues>
            -6.0167604684829712e-01 3.5992655903100967e-02</leafValues></_>
        <_>
          <internalNodes>
            0 -1 507 -1.4583990909159184e-02</internalNodes>
          <leafValues>
            6.3154238462448120e-01 -4.1959177702665329e-02</leafValues></_>
        <_>
          <internalNodes>
            0 -1 40 -2.1489620208740234e-02</internalNodes>
          <leafValues>
            2.7534094452857971e-01 -8.5484713315963745e-02</leafValues></_>
        <_>
          <internalNodes>
            0 -1 342 2.5832900777459145e-02</internalNodes>
          <leafValues>
            -1.2113523483276367e-01 2.7160993218421936e-01</leafValues></_>
        <_>
          <internalNodes>
            0 -1 557 -1.0504703968763351e-02</internalNodes>
          <leafValues>
            -3.3355575799942017e-01 7.9148247838020325e-02</leafValues></_>
        <_>
          <internalNodes>
            0 -1 588 7.8759007155895233e-03</internalNodes>
          <leafValues>
            9.7029343247413635e-02 -2.9180994629859924e-01</leafValues></_>
        <_>
          <internalNodes>
            0 -1 388 -1.5557707520201802e-03</internalNodes>
          <leafValues>
            2.2966997325420380e-01 -1.0807766765356064e-01</leafValues></_>
        <_>
          <internalNodes>
            0 -1 329 5.0511276349425316e-03</internalNodes>
          <leafValues>
            -8.7623730301856995e-02 3.3362257480621338e-01</leafValues></_>
        <_>
          <internalNodes>
            0 -1 53 4.1814874857664108e-03</internalNodes>
          <leafValues>
            -6.5490476787090302e-02 4.0755724906921387e-01</leafValues></_>
        <_>
          <internalNodes>
            0 -1 260 9.2533614952117205e-04</internalNodes>
          <leafValues>
            7.9291597008705139e-02 -3.9547687768936157e-01</leafValues></_>
        <_>
          <internalNodes>
            0 -1 54 -2.2580011282116175e-03</internalNodes>
          <leafValues>
            3.2374274730682373e-01 -8.3172447979450226e-02</leafValues></_>
        <_>
          <internalNodes>
            0 -1 477 1.3060100376605988e-02</internalNodes>
          <leafValues>
            -1.0425803810358047e-01 2.6124432682991028e-01</leafValues></_>
        <_>
          <internalNodes>
            0 -1 221 5.2658384665846825e-03</internalNodes>
          <leafValues>
            -1.4424125850200653e-01 1.9313497841358185e-01</leafValues></_>
        <_>
          <internalNodes>
            0 -1 1 2.2830590605735779e-03</internalNodes>
          <leafValues>
            8.5387445986270905e-02 -2.9856237769126892e-01</leafValues></_>
        <_>
          <internalNodes>
            0 -1 371 -2.9943226836621761e-03</internalNodes>
          <leafValues>
            -5.4690146446228027e-01 4.8686280846595764e-02</leafValues></_>
        <_>
          <internalNodes>
            0 -1 903 3.8939746445976198e-04</internalNodes>
          <leafValues>
            -1.1538331955671310e-01 2.3137885332107544e-01</leafValues></_></weakClassifiers></_>
    <!-- stage 11 -->
    <_>
      <maxWeakCount>67</maxWeakCount>
      <stageThreshold>-1.4355008602142334e+00</stageThreshold>
      <weakClassifiers>
        <_>
          <internalNodes>
            0 -1 908 -6.3072121702134609e-03</internalNodes>
          <leafValues>
            3.5483869910240173e-01 -5.2542370557785034e-01</leafValues></_>
        <_>
          <internalNodes>
            0 -1 397 -2.5694943964481354e-02</internalNodes>
          <leafValues>
            5.0275844335556030e-01 -1.7539735138416290e-01</leafValues></_>
        <_>
          <internalNodes>
            0 -1 208 -1.7658106982707977e-02</internalNodes>
          <leafValues>
            2.5962850451469421e-01 -1.6953623294830322e-01</leafValues></_>
        <_>
          <internalNodes>
            0 -1 712 1.2427330017089844e-02</internalNodes>
          <leafValues>
            -3.5814262926578522e-02 6.5643757581710815e-01</leafValues></_>
        <_>
          <internalNodes>
            0 -1 445 5.6746667250990868e-03</internalNodes>
          <leafValues>
            -6.7092351615428925e-02 4.6612897515296936e-01</leafValues></_>
        <_>
          <internalNodes>
            0 -1 129 -9.0945705771446228e-02</internalNodes>
          <leafValues>
            -6.1000168323516846e-01 4.3220162391662598e-02</leafValues></_>
        <_>
          <internalNodes>
            0 -1 641 4.2728882282972336e-02</internalNodes>
          <leafValues>
            8.5028409957885742e-02 -3.9667162299156189e-01</leafValues></_>
        <_>
          <internalNodes>
            0 -1 559 -1.2307653203606606e-02</internalNodes>
          <leafValues>
            6.1857885122299194e-01 -3.3616092056035995e-02</leafValues></_>
        <_>
          <internalNodes>
            0 -1 234 8.8477302342653275e-03</internalNodes>
          <leafValues>
            5.2859973162412643e-02 -5.4163765907287598e-01</leafValues></_>
        <_>
          <internalNodes>
            0 -1 244 9.6939772367477417e-02</internalNodes>
          <leafValues>
            3.0792973935604095e-02 -6.8536514043807983e-01</leafValues></_>
        <_>
          <internalNodes>
            0 -1 387 -8.5754334926605225e-02</internalNodes>
          <leafValues>
            -3.3221331238746643e-01 7.4427016079425812e-02</leafValues></_>
        <_>
          <internalNodes>
            0 -1 580 -4.0001040324568748e-03</internalNodes>
          <leafValues>
            2.2253862023353577e-01 -1.0692752152681351e-01</leafValues></_>
        <_>
          <internalNodes>
            0 -1 245 1.1310067027807236e-02</internalNodes>
          <leafValues>
            -1.1153689771890640e-01 2.4597063660621643e-01</leafValues></_>
        <_>
          <internalNodes>
            0 -1 92 -8.4884241223335266e-03</internalNodes>
          <leafValues>
            -4.8190587759017944e-01 4.8883914947509766e-02</leafValues></_>
        <_>
          <internalNodes>
            0 -1 497 3.1990312039852142e-02</internalNodes>
          <leafValues>
            3.1820375472307205e-02 -7.6916420459747314e-01</leafValues></_>
        <_>
          <internalNodes>
            0 -1 722 -2.1168643143028021e-03</internalNodes>
          <leafValues>
            4.3824455142021179e-01 -5.9594113379716873e-02</leafValues></_>
        <_>
          <internalNodes>
            0 -1 570 -1.3633660972118378e-02</internalNodes>
          <leafValues>
            1.9486461579799652e-01 -1.4087203145027161e-01</leafValues></_>
        <_>
          <internalNodes>
            0 -1 59 1.8706041574478149e-01</internalNodes>
          <leafValues>
            3.9546877145767212e-02 -8.7712740898132324e-01</leafValues></_>
        <_>
          <internalNodes>
            0 -1 726 -5.1931594498455524e-04</internalNodes>
          <leafValues>
            -3.2289701700210571e-01 6.2122806906700134e-02</leafValues></_>
        <_>
          <internalNodes>
            0 -1 205 2.2722561843693256e-03</internalNodes>
          <leafValues>
            -9.4871163368225098e-02 2.3875533044338226e-01</leafValues></_>
        <_>
          <internalNodes>
            0 -1 643 1.2594591826200485e-02</internalNodes>
          <leafValues>
            9.5459833741188049e-02 -2.7167311310768127e-01</leafValues></_>
        <_>
          <internalNodes>
            0 -1 275 -8.7885364890098572e-02</internalNodes>
          <leafValues>
            -5.5578452348709106e-01 4.5756466686725616e-02</leafValues></_>
        <_>
          <internalNodes>
            0 -1 454 3.4221239387989044e-02</internalNodes>
          <leafValues>
            -7.9604841768741608e-02 3.4906545281410217e-01</leafValues></_>
        <_>
          <internalNodes>
            0 -1 155 -1.9299864768981934e-02</internalNodes>
          <leafValues>
            -4.4582122564315796e-01 6.1270646750926971e-02</leafValues></_>
        <_>
          <internalNodes>
            0 -1 466 3.9158985018730164e-03</internalNodes>
          <leafValues>
            -7.2724401950836182e-02 3.4044545888900757e-01</leafValues></_>
        <_>
          <internalNodes>
            0 -1 718 -2.7555930428206921e-03</internalNodes>
          <leafValues>
            2.2961862385272980e-01 -9.7785256803035736e-02</leafValues></_>
        <_>
          <internalNodes>
            0 -1 12 -2.8935846686363220e-01</internalNodes>
          <leafValues>
            2.5719812512397766e-01 -9.6532128751277924e-02</leafValues></_>
        <_>
          <internalNodes>
            0 -1 667 -4.3911017477512360e-02</internalNodes>
          <leafValues>
            2.2974444925785065e-01 -1.0911914706230164e-01</leafValues></_>
        <_>
          <internalNodes>
            0 -1 910 -1.9463436678051949e-02</internalNodes>
          <leafValues>
            -5.9136939048767090e-01 3.6296956241130829e-02</leafValues></_>
        <_>
          <internalNodes>
            0 -1 909 1.5740294009447098e-02</internalNodes>
          <leafValues>
            5.2643224596977234e-02 -4.5541527867317200e-01</leafValues></_>
        <_>
          <internalNodes>
            0 -1 1041 8.8668558746576309e-03</internalNodes>
          <leafValues>
            4.3315678834915161e-02 -5.1230746507644653e-01</leafValues></_>
        <_>
          <internalNodes>
            0 -1 826 -2.9263917822390795e-03</internalNodes>
          <leafValues>
            3.5711744427680969e-01 -6.9405399262905121e-02</leafValues></_>
        <_>
          <internalNodes>
            0 -1 1087 -4.7522443346679211e-03</internalNodes>
          <leafValues>
            2.4388922750949860e-01 -1.0447226464748383e-01</leafValues></_>
        <_>
          <internalNodes>
            0 -1 494 -2.0140418782830238e-03</internalNodes>
          <leafValues>
            -4.0134701132774353e-01 5.3182121366262436e-02</leafValues></_>
        <_>
          <internalNodes>
            0 -1 1072 -6.0145324096083641e-03</internalNodes>
          <leafValues>
            1.9554610550403595e-01 -1.0629332810640335e-01</leafValues></_>
        <_>
          <internalNodes>
            0 -1 73 5.4771779105067253e-03</internalNodes>
          <leafValues>
            7.0196367800235748e-02 -2.9965737462043762e-01</leafValues></_>
        <_>
          <internalNodes>
            0 -1 282 1.5986269572749734e-03</internalNodes>
          <leafValues>
            -9.6694245934486389e-02 2.1201463043689728e-01</leafValues></_>
        <_>
          <internalNodes>
            0 -1 178 5.3486928343772888e-02</internalNodes>
          <leafValues>
